{"learner":{"attributes":{"scikit_learn":"{\"_estimator_type\": \"classifier\"}"},"feature_names":["glicko_diff_overall","glicko_diff_surface","form_diff"],"feature_types":["float","float","float"],"gradient_booster":{"model":{"cats":{"enc":[],"feature_segments":[],"sorted_idx":[]},"gbtree_model_param":{"num_parallel_tree":"1","num_trees":"300"},"iteration_indptr":[0,1,2,3,4,5,6,7,8,9,10,11,12,13,14,15,16,17,18,19,20,21,22,23,24,25,26,27,28,29,30,31,32,33,34,35,36,37,38,39,40,41,42,43,44,45,46,47,48,49,50,51,52,53,54,55,56,57,58,59,60,61,62,63,64,65,66,67,68,69,70,71,72,73,74,75,76,77,78,79,80,81,82,83,84,85,86,87,88,89,90,91,92,93,94,95,96,97,98,99,100,101,102,103,104,105,106,107,108,109,110,111,112,113,114,115,116,117,118,119,120,121,122,123,124,125,126,127,128,129,130,131,132,133,134,135,136,137,138,139,140,141,142,143,144,145,146,147,148,149,150,151,152,153,154,155,156,157,158,159,160,161,162,163,164,165,166,167,168,169,170,171,172,173,174,175,176,177,178,179,180,181,182,183,184,185,186,187,188,189,190,191,192,193,194,195,196,197,198,199,200,201,202,203,204,205,206,207,208,209,210,211,212,213,214,215,216,217,218,219,220,221,222,223,224,225,226,227,228,229,230,231,232,233,234,235,236,237,238,239,240,241,242,243,244,245,246,247,248,249,250,251,252,253,254,255,256,257,258,259,260,261,262,263,264,265,266,267,268,269,270,271,272,273,274,275,276,277,278,279,280,281,282,283,284,285,286,287,288,289,290,291,292,293,294,295,296,297,298,299,300],"tree_info":[0,0,0,0,0,0,0,0,0,0,0,0,0,0,0,0,0,0,0,0,0,0,0,0,0,0,0,0,0,0,0,0,0,0,0,0,0,0,0,0,0,0,0,0,0,0,0,0,0,0,0,0,0,0,0,0,0,0,0,0,0,0,0,0,0,0,0,0,0,0,0,0,0,0,0,0,0,0,0,0,0,0,0,0,0,0,0,0,0,0,0,0,0,0,0,0,0,0,0,0,0,0,0,0,0,0,0,0,0,0,0,0,0,0,0,0,0,0,0,0,0,0,0,0,0,0,0,0,0,0,0,0,0,0,0,0,0,0,0,0,0,0,0,0,0,0,0,0,0,0,0,0,0,0,0,0,0,0,0,0,0,0,0,0,0,0,0,0,0,0,0,0,0,0,0,0,0,0,0,0,0,0,0,0,0,0,0,0,0,0,0,0,0,0,0,0,0,0,0,0,0,0,0,0,0,0,0,0,0,0,0,0,0,0,0,0,0,0,0,0,0,0,0,0,0,0,0,0,0,0,0,0,0,0,0,0,0,0,0,0,0,0,0,0,0,0,0,0,0,0,0,0,0,0,0,0,0,0,0,0,0,0,0,0,0,0,0,0,0,0,0,0,0,0,0,0,0,0,0,0,0,0,0,0,0,0,0,0,0,0,0,0,0,0,0,0,0,0,0,0],"trees":[{"base_weights":[-1.4935418E-3,-5.441923E-1,4.9285507E-1,-9.1226465E-1,-2.8979307E-1,2.5672653E-1,9.29242E-1,-1.2196906E0,-7.8088695E-1,-4.5498264E-1,-1.842305E-1,1.284748E-1,4.468877E-1,8.068534E-1,1.2165246E0,-6.3254185E-2,-4.6034824E-2,-4.6881046E-2,-3.5954442E-2,-2.5942354E-2,-1.9045934E-2,-1.37359155E-2,-5.099103E-3,-5.954658E-3,9.323231E-3,1.8810745E-2,2.9465025E-2,3.5447605E-2,4.4362053E-2,4.2056657E-2,6.3681625E-2],"categories":[],"categories_nodes":[],"categories_segments":[],"categories_sizes":[],"default_left":[0,0,0,0,0,0,0,0,0,0,0,0,0,0,0,0,0,0,0,0,0,0,0,0,0,0,0,0,0,0,0],"id":0,"left_children":[1,3,5,7,9,11,13,15,17,19,21,23,25,27,29,-1,-1,-1,-1,-1,-1,-1,-1,-1,-1,-1,-1,-1,-1,-1,-1],"loss_changes":[7.618666E3,1.2673018E3,1.5310864E3,2.2247803E2,1.395232E2,2.3515692E2,1.8246582E2,2.1290527E1,3.6892334E1,1.456366E1,3.6337738E1,8.273294E1,3.887207E1,2.8189209E1,3.2301758E1,0E0,0E0,0E0,0E0,0E0,0E0,0E0,0E0,0E0,0E0,0E0,0E0,0E0,0E0,0E0,0E0],"parents":[2147483647,0,0,1,1,2,2,3,3,4,4,5,5,6,6,7,7,8,8,9,9,10,10,11,11,12,12,13,13,14,14],"right_children":[2,4,6,8,10,12,14,16,18,20,22,24,26,28,30,-1,-1,-1,-1,-1,-1,-1,-1,-1,-1,-1,-1,-1,-1,-1,-1],"split_conditions":[-3.2899075E0,-1.4482927E2,1.5299562E2,-2.874318E2,-8.258538E1,7.5303894E1,2.9339902E2,4.4444446E-2,-2.2895016E2,-3.3333335E-2,-4.3461205E1,-1.6666667E-1,2E-1,1.9957092E2,0E0,-6.3254185E-2,-4.6034824E-2,-4.6881046E-2,-3.5954442E-2,-2.5942354E-2,-1.9045934E-2,-1.37359155E-2,-5.099103E-3,-5.954658E-3,9.323231E-3,1.8810745E-2,2.9465025E-2,3.5447605E-2,4.4362053E-2,4.2056657E-2,6.3681625E-2],"split_indices":[1,1,1,1,1,1,1,2,1,2,1,2,2,1,2,0,0,0,0,0,0,0,0,0,0,0,0,0,0,0,0],"split_type":[0,0,0,0,0,0,0,0,0,0,0,0,0,0,0,0,0,0,0,0,0,0,0,0,0,0,0,0,0,0,0],"sum_hessian":[2.8395936E4,1.353597E4,1.4859967E4,5.5309873E3,8.004982E3,9.643479E3,5.2164883E3,1.6534962E3,3.8774912E3,3.119743E3,4.885239E3,5.760237E3,3.8832412E3,3.6607417E3,1.5557465E3,1.4327467E3,2.207495E2,1.0924976E3,2.7849937E3,1.6719962E3,1.4477467E3,2.3249946E3,2.5602441E3,1.0929976E3,4.6672393E3,2.5977441E3,1.2854971E3,1.6549962E3,2.0057455E3,2.0749953E2,1.348247E3],"tree_param":{"num_deleted":"0","num_feature":"3","num_nodes":"31","size_leaf_vector":"1"}},{"base_weights":[-4.019788E-3,-5.1032525E-1,5.5208695E-1,-9.205892E-1,-2.583524E-1,2.5253028E-1,8.926574E-1,-1.2608044E0,-7.6599294E-1,-3.9619386E-1,-9.4858624E-2,1.1360676E-1,3.719802E-1,7.919751E-1,1.3653774E0,-7.282981E-2,-5.7130296E-2,-4.5895953E-2,-3.435186E-2,-2.3677718E-2,-1.6102953E-2,-7.1656913E-3,-1.7161455E-3,3.801291E-3,1.081265E-2,1.5714837E-2,2.4546398E-2,3.398773E-2,4.592431E-2,5.9971582E-2,7.644901E-2],"categories":[],"categories_nodes":[],"categories_segments":[],"categories_sizes":[],"default_left":[0,0,0,0,0,0,0,0,0,0,0,0,0,0,0,0,0,0,0,0,0,0,0,0,0,0,0,0,0,0,0],"id":1,"left_children":[1,3,5,7,9,11,13,15,17,19,21,23,25,27,29,-1,-1,-1,-1,-1,-1,-1,-1,-1,-1,-1,-1,-1,-1,-1,-1],"loss_changes":[8.0294443E3,1.5428723E3,1.3862759E3,2.9773975E2,2.0840002E2,1.1996863E2,3.0159424E2,3.936377E1,4.6240234E1,2.862555E1,1.2409092E1,1.2886673E1,2.6523193E1,7.3842285E1,2.844458E1,0E0,0E0,0E0,0E0,0E0,0E0,0E0,0E0,0E0,0E0,0E0,0E0,0E0,0E0,0E0,0E0],"parents":[2147483647,0,0,1,1,2,2,3,3,4,4,5,5,6,6,7,7,8,8,9,9,10,10,11,11,12,12,13,13,14,14],"right_children":[2,4,6,8,10,12,14,16,18,20,22,24,26,28,30,-1,-1,-1,-1,-1,-1,-1,-1,-1,-1,-1,-1,-1,-1,-1,-1],"split_conditions":[1.0045913E1,-1.3665028E2,1.2339306E2,-2.6539706E2,-4.993229E1,5.7396973E1,3.1244556E2,-3.6386313E2,-2.0594276E2,-9.0231155E1,-1.648517E1,4.449253E1,2E-1,1.9126907E2,3.844715E2,-7.282981E-2,-5.7130296E-2,-4.5895953E-2,-3.435186E-2,-2.3677718E-2,-1.6102953E-2,-7.1656913E-3,-1.7161455E-3,3.801291E-3,1.081265E-2,1.5714837E-2,2.4546398E-2,3.398773E-2,4.592431E-2,5.9971582E-2,7.644901E-2],"split_indices":[0,0,0,0,0,0,0,0,0,0,0,0,2,0,0,0,0,0,0,0,0,0,0,0,0,0,0,0,0,0,0],"split_type":[0,0,0,0,0,0,0,0,0,0,0,0,0,0,0,0,0,0,0,0,0,0,0,0,0,0,0,0,0,0,0],"sum_hessian":[2.8515717E4,1.4926248E4,1.3589468E4,5.678241E3,9.248007E3,7.231008E3,6.35846E3,1.7718442E3,3.906397E3,5.0168667E3,4.23114E3,3.3439053E3,3.8871025E3,5.244199E3,1.114261E3,6.6273016E2,1.109114E3,1.3322552E3,2.5741418E3,2.452386E3,2.5644805E3,2.3492998E3,1.8818406E3,2.4490117E3,8.948937E2,2.6201223E3,1.2669803E3,2.782438E3,2.4617612E3,5.5730524E2,5.569557E2],"tree_param":{"num_deleted":"0","num_feature":"3","num_nodes":"31","size_leaf_vector":"1"}},{"base_weights":[-1.0473302E-3,-5.52778E-1,4.6531373E-1,-1.0372427E0,-3.8685897E-1,1.7793065E-1,8.445057E-1,-1.2005057E0,-8.5053396E-1,-5.365791E-1,-2.3350371E-1,5.621822E-2,3.0251348E-1,7.20058E-1,1.2181981E0,-6.929951E-2,-5.4439932E-2,-4.5106765E-2,-3.791962E-2,-3.196175E-2,-2.2174237E-2,-1.5276252E-2,-5.600785E-3,-2.7454633E-5,4.902291E-3,1.2859886E-2,2.0049037E-2,3.2733425E-2,4.400196E-2,5.4113295E-2,7.1080066E-2],"categories":[],"categories_nodes":[],"categories_segments":[],"categories_sizes":[],"default_left":[0,0,0,0,0,0,0,0,0,0,0,0,0,0,0,0,0,0,0,0,0,0,0,0,0,0,0,0,0,0,0],"id":2,"left_children":[1,3,5,7,9,11,13,15,17,19,21,23,25,27,29,-1,-1,-1,-1,-1,-1,-1,-1,-1,-1,-1,-1,-1,-1,-1,-1],"loss_changes":[7.321149E3,1.0472659E3,1.6801633E3,1.0031543E2,2.2282495E2,1.3300876E2,3.082705E2,3.5188477E1,6.7059326E0,4.6664307E1,4.1952637E1,1.053971E1,1.92406E1,5.161743E1,4.4339355E1,0E0,0E0,0E0,0E0,0E0,0E0,0E0,0E0,0E0,0E0,0E0,0E0,0E0,0E0,0E0,0E0],"parents":[2147483647,0,0,1,1,2,2,3,3,4,4,5,5,6,6,7,7,8,8,9,9,10,10,11,11,12,12,13,13,14,14],"right_children":[2,4,6,8,10,12,14,16,18,20,22,24,26,28,30,-1,-1,-1,-1,-1,-1,-1,-1,-1,-1,-1,-1,-1,-1,-1,-1],"split_conditions":[-1.648517E1,-1.9869157E2,1.17187515E2,-2.6539706E2,-8.831658E1,4.5947353E1,2.7146954E2,-3.6386313E2,-2.1776735E2,-1.3665028E2,-4.169703E1,1.0045913E1,2E-1,2.0611166E2,3.6536612E2,-6.929951E-2,-5.4439932E-2,-4.5106765E-2,-3.791962E-2,-3.196175E-2,-2.2174237E-2,-1.5276252E-2,-5.600785E-3,-2.7454633E-5,4.902291E-3,1.2859886E-2,2.0049037E-2,3.2733425E-2,4.400196E-2,5.4113295E-2,7.1080066E-2],"split_indices":[0,0,0,0,0,0,0,0,0,0,0,0,2,0,0,0,0,0,0,0,0,0,0,0,0,0,0,0,0,0,0],"split_type":[0,0,0,0,0,0,0,0,0,0,0,0,0,0,0,0,0,0,0,0,0,0,0,0,0,0,0,0,0,0,0],"sum_hessian":[2.8451117E4,1.3032624E4,1.5418492E4,3.3234053E3,9.709219E3,8.771894E3,6.6465986E3,1.770128E3,1.5532773E3,4.911572E3,4.797647E3,4.437796E3,4.334098E3,4.9883096E3,1.658289E3,6.6106036E2,1.1090677E3,9.900414E2,5.6323596E2,2.3330413E3,2.5785308E3,3.0110825E3,1.7865642E3,1.8830952E3,2.5547004E3,2.9706042E3,1.3634939E3,3.5446052E3,1.4437045E3,9.9779425E2,6.604946E2],"tree_param":{"num_deleted":"0","num_feature":"3","num_nodes":"31","size_leaf_vector":"1"}},{"base_weights":[7.012734E-4,-4.9578524E-1,4.5927605E-1,-8.2863736E-1,-2.606961E-1,1.9827898E-1,8.0861443E-1,-1.1365914E0,-6.8685657E-1,-3.7586132E-1,-1.3101983E-1,1.07313916E-1,3.631837E-1,6.5889525E-1,1.0874968E0,-6.704433E-2,-5.0647523E-2,-4.1527238E-2,-3.0550575E-2,-2.1537237E-2,-1.4996934E-2,-1.0319654E-2,-3.8844093E-3,2.9545575E-3,9.8945545E-3,1.5998742E-2,2.238696E-2,2.9979972E-2,3.9152574E-2,4.8307117E-2,6.558301E-2],"categories":[],"categories_nodes":[],"categories_segments":[],"categories_sizes":[],"default_left":[0,0,0,0,0,0,0,0,0,0,0,0,0,0,0,0,0,0,0,0,0,0,0,0,0,0,0,0,0,0,0],"id":3,"left_children":[1,3,5,7,9,11,13,15,17,19,21,23,25,27,29,-1,-1,-1,-1,-1,-1,-1,-1,-1,-1,-1,-1,-1,-1,-1,-1],"loss_changes":[6.457651E3,1.0654465E3,1.344198E3,2.4533179E2,1.1916968E2,1.2657654E2,2.625381E2,4.3489014E1,4.158362E1,1.7486328E1,1.5084045E1,2.375547E1,1.0818695E1,2.9751465E1,5.8604248E1,0E0,0E0,0E0,0E0,0E0,0E0,0E0,0E0,0E0,0E0,0E0,0E0,0E0,0E0,0E0,0E0],"parents":[2147483647,0,0,1,1,2,2,3,3,4,4,5,5,6,6,7,7,8,8,9,9,10,10,11,11,12,12,13,13,14,14],"right_children":[2,4,6,8,10,12,14,16,18,20,22,24,26,28,30,-1,-1,-1,-1,-1,-1,-1,-1,-1,-1,-1,-1,-1,-1,-1,-1],"split_conditions":[-7.290584E0,-1.3665028E2,1.2339306E2,-2.6539706E2,-6.1776794E1,7.132106E1,2.4198659E2,-3.6386313E2,-2.0594276E2,-9.0231155E1,-3.8525112E1,4.292291E1,2E-1,1.9126907E2,3.498933E2,-6.704433E-2,-5.0647523E-2,-4.1527238E-2,-3.0550575E-2,-2.1537237E-2,-1.4996934E-2,-1.0319654E-2,-3.8844093E-3,2.9545575E-3,9.8945545E-3,1.5998742E-2,2.238696E-2,2.9979972E-2,3.9152574E-2,4.8307117E-2,6.558301E-2],"split_indices":[0,0,0,0,0,0,0,0,0,0,0,0,2,0,0,0,0,0,0,0,0,0,0,0,0,0,0,0,0,0,0],"split_type":[0,0,0,0,0,0,0,0,0,0,0,0,0,0,0,0,0,0,0,0,0,0,0,0,0,0,0,0,0,0,0],"sum_hessian":[2.8361312E4,1.3617707E4,1.47436045E4,5.6357617E3,7.981946E3,8.439711E3,6.303894E3,1.7744854E3,3.8612761E3,4.226501E3,3.7554448E3,5.4403467E3,2.9993638E3,4.1040044E3,2.19989E3,6.653184E2,1.1091669E3,1.330568E3,2.5307083E3,2.4504397E3,1.7760612E3,1.5549603E3,2.2004846E3,3.5513047E3,1.8890419E3,1.9881693E3,1.0111946E3,2.7814429E3,1.3225613E3,1.4306791E3,7.692107E2],"tree_param":{"num_deleted":"0","num_feature":"3","num_nodes":"31","size_leaf_vector":"1"}},{"base_weights":[2.5874854E-3,-3.6849928E-1,5.0784576E-1,-7.3384225E-1,-1.527872E-1,3.1080595E-1,7.963331E-1,-9.4856584E-1,-5.800224E-1,-2.9062727E-1,-2.7669482E-2,2.3734082E-1,4.8535073E-1,6.9950986E-1,1.0558052E0,-5.5191476E-2,-4.241181E-2,-3.903636E-2,-2.7814439E-2,-1.9085716E-2,-1.1087296E-2,-8.590158E-3,3.4888692E-3,9.284596E-3,1.8077454E-2,1.825013E-2,2.9056817E-2,3.238538E-2,4.192675E-2,3.6593042E-2,5.51905E-2],"categories":[],"categories_nodes":[],"categories_segments":[],"categories_sizes":[],"default_left":[0,0,0,0,0,0,0,0,0,0,0,0,0,0,0,0,0,0,0,0,0,0,0,0,0,0,0,0,0,0,0],"id":4,"left_children":[1,3,5,7,9,11,13,15,17,19,21,23,25,27,29,-1,-1,-1,-1,-1,-1,-1,-1,-1,-1,-1,-1,-1,-1,-1,-1],"loss_changes":[5.3202627E3,1.2891997E3,6.8275977E2,2.0004126E2,1.7741652E2,9.1453186E1,1.2175073E2,3.8525635E1,1.6433105E1,3.0626831E1,7.577046E1,3.218631E1,2.4161041E1,2.5049438E1,1.9765747E1,0E0,0E0,0E0,0E0,0E0,0E0,0E0,0E0,0E0,0E0,0E0,0E0,0E0,0E0,0E0,0E0],"parents":[2147483647,0,0,1,1,2,2,3,3,4,4,5,5,6,6,7,7,8,8,9,9,10,10,11,11,12,12,13,13,14,14],"right_children":[2,4,6,8,10,12,14,16,18,20,22,24,26,28,30,-1,-1,-1,-1,-1,-1,-1,-1,-1,-1,-1,-1,-1,-1,-1,-1],"split_conditions":[2.8190123E1,-1.3241507E2,1.6162555E2,-2.3867758E2,-4.3461205E1,1.1418762E2,3.1068893E2,-3.4346786E2,-3.7777779E-1,-9.0529495E1,-3.3333335E-2,1.5555556E-1,1E-1,3E-1,0E0,-5.5191476E-2,-4.241181E-2,-3.903636E-2,-2.7814439E-2,-1.9085716E-2,-1.1087296E-2,-8.590158E-3,3.4888692E-3,9.284596E-3,1.8077454E-2,1.825013E-2,2.9056817E-2,3.238538E-2,4.192675E-2,3.6593042E-2,5.51905E-2],"split_indices":[1,1,1,1,1,1,1,1,2,1,2,2,2,2,2,0,0,0,0,0,0,0,0,0,0,0,0,0,0,0,0],"split_type":[0,0,0,0,0,0,0,0,0,0,0,0,0,0,0,0,0,0,0,0,0,0,0,0,0,0,0,0,0,0,0],"sum_hessian":[2.8373547E4,1.6358975E4,1.2014572E4,6.072248E3,1.0286726E4,7.139973E3,4.8745986E3,2.5322324E3,3.5400159E3,4.893888E3,5.392838E3,5.0266416E3,2.1133318E3,3.552619E3,1.3219799E3,9.900665E2,1.5421658E3,3.7097156E2,3.1690444E3,2.105321E3,2.7885671E3,2.1750127E3,3.217825E3,3.5520884E3,1.4745531E3,9.387131E2,1.1746188E3,2.5923428E3,9.602762E2,1.7271494E2,1.1492649E3],"tree_param":{"num_deleted":"0","num_feature":"3","num_nodes":"31","size_leaf_vector":"1"}},{"base_weights":[1.6478961E-3,-4.1063055E-1,4.6983987E-1,-7.5014967E-1,-2.0858921E-1,2.3066057E-1,7.756544E-1,-9.7709394E-1,-5.781516E-1,-4.0684545E-1,-1.2225638E-1,1.2721246E-1,3.594602E-1,6.853132E-1,1.1694033E0,-6.130575E-2,-4.419027E-2,-3.0155003E-2,-5.6588254E-3,-4.2855408E-2,-1.954838E-2,-1.16059305E-2,-1.4020191E-4,-1.9394454E-2,7.5255446E-3,1.6242106E-2,2.6571779E-2,2.748439E-2,3.8215455E-2,5.3621035E-2,6.979134E-2],"categories":[],"categories_nodes":[],"categories_segments":[],"categories_sizes":[],"default_left":[0,0,0,0,0,0,0,0,0,0,0,0,0,0,0,0,0,0,0,0,0,0,0,0,0,0,0,0,0,0,0],"id":5,"left_children":[1,3,5,7,9,11,13,15,17,19,21,23,25,27,29,-1,-1,-1,-1,-1,-1,-1,-1,-1,-1,-1,-1,-1,-1,-1,-1],"loss_changes":[5.46428E3,1.0324436E3,9.693838E2,2.1863159E2,1.6150189E2,9.90788E1,2.0611694E2,5.5125977E1,3.7017456E1,2.0132141E1,8.630808E1,4.9590744E1,1.9552155E1,5.029712E1,2.2309937E1,0E0,0E0,0E0,0E0,0E0,0E0,0E0,0E0,0E0,0E0,0E0,0E0,0E0,0E0,0E0,0E0],"parents":[2147483647,0,0,1,1,2,2,3,3,4,4,5,5,6,6,7,7,8,8,9,9,10,10,11,11,12,12,13,13,14,14],"right_children":[2,4,6,8,10,12,14,16,18,20,22,24,26,28,30,-1,-1,-1,-1,-1,-1,-1,-1,-1,-1,-1,-1,-1,-1,-1,-1],"split_conditions":[1.2964078E1,-1.3665028E2,1.3235965E2,-2.3196169E2,-9.0529495E1,6.97419E1,3.1244556E2,-3.6386313E2,1.464797E1,-3.5619885E2,-3.8525112E1,-1.7000403E2,1.17187515E2,1.4770496E2,4.344352E2,-6.130575E-2,-4.419027E-2,-3.0155003E-2,-5.6588254E-3,-4.2855408E-2,-1.954838E-2,-1.16059305E-2,-1.4020191E-4,-1.9394454E-2,7.5255446E-3,1.6242106E-2,2.6571779E-2,2.748439E-2,3.8215455E-2,5.3621035E-2,6.979134E-2],"split_indices":[0,0,0,0,1,1,0,0,1,1,0,1,0,1,0,0,0,0,0,0,0,0,0,0,0,0,0,0,0,0,0],"split_type":[0,0,0,0,0,0,0,0,0,0,0,0,0,0,0,0,0,0,0,0,0,0,0,0,0,0,0,0,0,0,0],"sum_hessian":[2.8306596E4,1.5052156E4,1.3254439E4,5.614534E3,9.437622E3,7.4385005E3,5.8159395E3,2.4186055E3,3.1959287E3,2.8618672E3,6.575755E3,4.1263354E3,3.3121646E3,4.732795E3,1.0831445E3,6.558257E2,1.7627797E3,3.0329001E3,1.6302867E2,9.567724E1,2.76619E3,3.424888E3,3.1508672E3,1.7788358E2,3.9484521E3,2.7595618E3,5.5260284E2,1.7449332E3,2.9878618E3,7.6234875E2,3.2079578E2],"tree_param":{"num_deleted":"0","num_feature":"3","num_nodes":"31","size_leaf_vector":"1"}},{"base_weights":[1.6925341E-4,-4.4585776E-1,3.8763404E-1,-7.5903285E-1,-2.6520526E-1,1.5961473E-1,7.108518E-1,-9.9158967E-1,-6.267174E-1,-3.4828466E-1,-1.3359836E-1,-1.9717073E-1,1.9341572E-1,5.7110685E-1,9.7462076E-1,-5.8829676E-2,-4.4009607E-2,-3.4392674E-2,-2.5007052E-2,-2.4910785E-2,-1.5177818E-2,-8.6121205E-3,5.227337E-3,-2.2096531E-2,-6.633427E-3,4.275284E-3,1.4255004E-2,1.9888623E-2,3.1237597E-2,4.290231E-2,5.9501737E-2],"categories":[],"categories_nodes":[],"categories_segments":[],"categories_sizes":[],"default_left":[0,0,0,0,0,0,0,0,0,0,0,0,0,0,0,0,0,0,0,0,0,0,0,0,0,0,0,0,0,0,0],"id":6,"left_children":[1,3,5,7,9,11,13,15,17,19,21,23,25,27,29,-1,-1,-1,-1,-1,-1,-1,-1,-1,-1,-1,-1,-1,-1,-1,-1],"loss_changes":[4.8818247E3,7.427339E2,1.1139644E3,1.4717993E2,9.102527E1,1.0694487E2,2.2991724E2,3.482666E1,2.3367676E1,3.408661E1,2.9696617E1,1.2060621E1,8.009595E1,3.777893E1,5.3320557E1,0E0,0E0,0E0,0E0,0E0,0E0,0E0,0E0,0E0,0E0,0E0,0E0,0E0,0E0,0E0,0E0],"parents":[2147483647,0,0,1,1,2,2,3,3,4,4,5,5,6,6,7,7,8,8,9,9,10,10,11,11,12,12,13,13,14,14],"right_children":[2,4,6,8,10,12,14,16,18,20,22,24,26,28,30,-1,-1,-1,-1,-1,-1,-1,-1,-1,-1,-1,-1,-1,-1,-1,-1],"split_conditions":[-1.3422308E1,-1.5389432E2,1.2339306E2,-2.6539706E2,-5.9933186E1,-7.8628E1,2.4198659E2,-3.6386313E2,-1.4482927E2,-1.4482927E2,4.7568214E1,-2.118263E2,4.5947353E1,9.471209E1,3.498933E2,-5.8829676E-2,-4.4009607E-2,-3.4392674E-2,-2.5007052E-2,-2.4910785E-2,-1.5177818E-2,-8.6121205E-3,5.227337E-3,-2.2096531E-2,-6.633427E-3,4.275284E-3,1.4255004E-2,1.9888623E-2,3.1237597E-2,4.290231E-2,5.9501737E-2],"split_indices":[0,0,0,0,0,1,0,0,1,1,1,1,0,1,0,0,0,0,0,0,0,0,0,0,0,0,0,0,0,0,0],"split_type":[0,0,0,0,0,0,0,0,0,0,0,0,0,0,0,0,0,0,0,0,0,0,0,0,0,0,0,0,0,0,0],"sum_hessian":[2.824607E4,1.3130662E4,1.5115408E4,4.802301E3,8.328361E3,8.863793E3,6.251615E3,1.7391268E3,3.063174E3,5.104439E3,3.2239229E3,7.66646E2,8.097147E3,4.088625E3,2.1629902E3,6.500282E2,1.0890986E3,2.062539E3,1.00063513E3,1.170555E3,3.9338838E3,2.7740515E3,4.498714E2,1.5867744E2,6.0796857E2,3.7203398E3,4.376807E3,9.683071E2,3.120318E3,1.4067103E3,7.5627997E2],"tree_param":{"num_deleted":"0","num_feature":"3","num_nodes":"31","size_leaf_vector":"1"}},{"base_weights":[1.4467615E-3,-4.3434253E-1,3.6896032E-1,-7.0371264E-1,-2.2943947E-1,1.6769718E-1,7.0086724E-1,-9.7011507E-1,-5.850116E-1,-2.6269004E-1,6.332613E-2,3.43442E-2,2.688147E-1,5.641006E-1,9.2976E-1,-5.678757E-2,-4.361441E-2,-3.55824E-2,-2.597299E-2,-1.8432459E-2,-9.680038E-3,-3.229926E-3,1.1265878E-2,-1.1901352E-2,3.6488522E-3,6.754859E-3,1.6314976E-2,9.5957145E-4,2.8930385E-2,4.1970316E-2,6.0186505E-2],"categories":[],"categories_nodes":[],"categories_segments":[],"categories_sizes":[],"default_left":[0,0,0,0,0,0,0,0,0,0,0,0,0,0,0,0,0,0,0,0,0,0,0,0,0,0,0,0,0,0,0],"id":7,"left_children":[1,3,5,7,9,11,13,15,17,19,21,23,25,27,29,-1,-1,-1,-1,-1,-1,-1,-1,-1,-1,-1,-1,-1,-1,-1,-1],"loss_changes":[4.5126704E3,7.113396E2,1.02096655E3,1.7552979E2,7.130289E1,1.2831857E2,1.8009619E2,2.6797852E1,3.1630127E1,4.8071228E1,1.550847E1,4.321589E1,4.1559967E1,2.8559448E1,5.237195E1,0E0,0E0,0E0,0E0,0E0,0E0,0E0,0E0,0E0,0E0,0E0,0E0,0E0,0E0,0E0,0E0],"parents":[2147483647,0,0,1,1,2,2,3,3,4,4,5,5,6,6,7,7,8,8,9,9,10,10,11,11,12,12,13,13,14,14],"right_children":[2,4,6,8,10,12,14,16,18,20,22,24,26,28,30,-1,-1,-1,-1,-1,-1,-1,-1,-1,-1,-1,-1,-1,-1,-1,-1],"split_conditions":[-1.648517E1,-1.3665028E2,1.3235965E2,-2.6539706E2,4.566358E1,3.0074345E1,2.4198659E2,-3.6386313E2,-2.0594276E2,-8.47034E1,-4.8346573E1,-1.1595281E2,4.449253E1,-7.4813614E1,3.844715E2,-5.678757E-2,-4.361441E-2,-3.55824E-2,-2.597299E-2,-1.8432459E-2,-9.680038E-3,-3.229926E-3,1.1265878E-2,-1.1901352E-2,3.6488522E-3,6.754859E-3,1.6314976E-2,9.5957145E-4,2.8930385E-2,4.1970316E-2,6.0186505E-2],"split_indices":[0,0,0,0,1,1,0,0,0,0,0,1,0,1,0,0,0,0,0,0,0,0,0,0,0,0,0,0,0,0,0],"split_type":[0,0,0,0,0,0,0,0,0,0,0,0,0,0,0,0,0,0,0,0,0,0,0,0,0,0,0,0,0,0,0],"sum_hessian":[2.8174281E4,1.2889737E4,1.5284543E4,5.567779E3,7.321959E3,9.515812E3,5.768732E3,1.7139547E3,3.853824E3,6.575281E3,7.466785E2,4.104358E3,5.4114536E3,3.6132366E3,2.1554956E3,6.3247144E2,1.0814833E3,1.3111057E3,2.5427183E3,2.593464E3,3.9818164E3,4.1754468E2,3.2913388E2,5.0920102E2,3.5951567E3,1.6279553E3,3.7834983E3,9.3760475E1,3.519476E3,1.6239806E3,5.3151495E2],"tree_param":{"num_deleted":"0","num_feature":"3","num_nodes":"31","size_leaf_vector":"1"}},{"base_weights":[-2.5863533E-3,-3.0676824E-1,4.731284E-1,-6.203356E-1,-1.1968952E-1,3.301355E-1,7.854055E-1,-8.2997775E-1,-4.6985564E-1,-2.5699812E-1,-1.0336017E-2,2.1957406E-1,4.7115037E-1,6.855365E-1,1.0497934E0,-5.42417E-2,-3.7505552E-2,-2.8257906E-2,-1.996961E-2,-1.4605603E-2,-1.8001344E-3,-2.5326302E-3,1.0175758E-2,-1.0889948E-2,1.2039217E-2,1.7424615E-2,2.6361799E-2,2.8818691E-2,3.810217E-2,4.9492117E-2,6.272868E-2],"categories":[],"categories_nodes":[],"categories_segments":[],"categories_sizes":[],"default_left":[0,0,0,0,0,0,0,0,0,0,0,0,0,0,0,0,0,0,0,0,0,0,0,0,0,0,0,0,0,0,0],"id":8,"left_children":[1,3,5,7,9,11,13,15,17,19,21,23,25,27,29,-1,-1,-1,-1,-1,-1,-1,-1,-1,-1,-1,-1,-1,-1,-1,-1],"loss_changes":[4.0770635E3,1.0080918E3,4.9044336E2,2.0219702E2,1.616405E2,1.1744122E2,9.039526E1,5.3778687E1,2.4894287E1,3.702481E1,5.168681E1,3.9273544E1,2.2604126E1,2.0503174E1,1.035022E1,0E0,0E0,0E0,0E0,0E0,0E0,0E0,0E0,0E0,0E0,0E0,0E0,0E0,0E0,0E0,0E0],"parents":[2147483647,0,0,1,1,2,2,3,3,4,4,5,5,6,6,7,7,8,8,9,9,10,10,11,11,12,12,13,13,14,14],"right_children":[2,4,6,8,10,12,14,16,18,20,22,24,26,28,30,-1,-1,-1,-1,-1,-1,-1,-1,-1,-1,-1,-1,-1,-1,-1,-1],"split_conditions":[4.449253E1,-1.1867777E2,1.9126907E2,-2.1776735E2,-4.011423E1,1.1307093E2,3.2354733E2,-3.6386313E2,-1.5825084E2,1.464797E1,7.5303894E1,-1.09243126E2,9.670569E1,1.9957092E2,4.7465213E2,-5.42417E-2,-3.7505552E-2,-2.8257906E-2,-1.996961E-2,-1.4605603E-2,-1.8001344E-3,-2.5326302E-3,1.0175758E-2,-1.0889948E-2,1.2039217E-2,1.7424615E-2,2.6361799E-2,2.8818691E-2,3.810217E-2,4.9492117E-2,6.272868E-2],"split_indices":[0,0,0,0,0,0,0,0,1,1,1,1,1,1,0,0,0,0,0,0,0,0,0,0,0,0,0,0,0,0,0],"split_type":[0,0,0,0,0,0,0,0,0,0,0,0,0,0,0,0,0,0,0,0,0,0,0,0,0,0,0,0,0,0,0],"sum_hessian":[2.8173227E4,1.7185082E4,1.0988144E4,6.420764E3,1.0764318E4,7.5383574E3,3.4497864E3,2.681081E3,3.7396833E3,4.771581E3,5.992738E3,4.2268735E3,3.311484E3,2.5065598E3,9.4322656E2,6.36718E2,2.044363E3,1.586672E3,2.1530112E3,4.1170947E3,6.544862E2,5.0428E3,9.499377E2,1.950714E2,4.031802E3,1.04133E3,2.2701538E3,1.0363674E3,1.4701925E3,7.341358E2,2.0909076E2],"tree_param":{"num_deleted":"0","num_feature":"3","num_nodes":"31","size_leaf_vector":"1"}},{"base_weights":[1.825128E-4,-3.4597096E-1,3.812284E-1,-6.315947E-1,-1.7408587E-1,1.7610991E-1,6.2919474E-1,-8.792733E-1,-5.213815E-1,-3.4817532E-1,-1.01955034E-1,9.882192E-2,2.8231925E-1,5.233161E-1,9.028029E-1,-5.2888837E-2,-3.8756263E-2,-3.2123562E-2,-2.291259E-2,-3.4413446E-2,-1.6787529E-2,-7.178016E-3,4.632568E-3,-7.3793875E-3,6.8533304E-3,-7.440512E-3,1.4884414E-2,1.9130519E-2,2.909976E-2,4.1641116E-2,6.033928E-2],"categories":[],"categories_nodes":[],"categories_segments":[],"categories_sizes":[],"default_left":[0,0,0,0,0,0,0,0,0,0,0,0,0,0,0,0,0,0,0,0,0,0,0,0,0,0,0,0,0,0,0],"id":9,"left_children":[1,3,5,7,9,11,13,15,17,19,21,23,25,27,29,-1,-1,-1,-1,-1,-1,-1,-1,-1,-1,-1,-1,-1,-1,-1,-1],"loss_changes":[3.7009224E3,7.216958E2,6.7921277E2,1.5031299E2,1.1524112E2,5.9985703E1,1.746792E2,3.0773926E1,2.894397E1,1.1131195E1,5.25783E1,3.991303E1,2.044455E1,3.5788696E1,3.4850708E1,0E0,0E0,0E0,0E0,0E0,0E0,0E0,0E0,0E0,0E0,0E0,0E0,0E0,0E0,0E0,0E0],"parents":[2147483647,0,0,1,1,2,2,3,3,4,4,5,5,6,6,7,7,8,8,9,9,10,10,11,11,12,12,13,13,14,14],"right_children":[2,4,6,8,10,12,14,16,18,20,22,24,26,28,30,-1,-1,-1,-1,-1,-1,-1,-1,-1,-1,-1,-1,-1,-1,-1,-1],"split_conditions":[1.0045913E1,-1.3665028E2,1.25449135E2,-2.6539706E2,-9.448787E1,7.132106E1,2.651231E2,-3.6386313E2,-2.0594276E2,-3.5619885E2,4.566358E1,-4.8813923E1,-1.1140448E2,1.16259315E2,4.344352E2,-5.2888837E-2,-3.8756263E-2,-3.2123562E-2,-2.291259E-2,-3.4413446E-2,-1.6787529E-2,-7.178016E-3,4.632568E-3,-7.3793875E-3,6.8533304E-3,-7.440512E-3,1.4884414E-2,1.9130519E-2,2.909976E-2,4.1641116E-2,6.033928E-2],"split_indices":[0,0,0,0,1,0,0,0,0,1,1,1,1,1,0,0,0,0,0,0,0,0,0,0,0,0,0,0,0,0,0],"split_type":[0,0,0,0,0,0,0,0,0,0,0,0,0,0,0,0,0,0,0,0,0,0,0,0,0,0,0,0,0,0,0],"sum_hessian":[2.805647E4,1.4701385E4,1.3355086E4,5.5222744E3,9.17911E3,7.3099688E3,6.0451177E3,1.6984423E3,3.8238323E3,2.6879216E3,6.491189E3,4.232171E3,3.0777979E3,4.360601E3,1.6845165E3,6.224478E2,1.0759945E3,1.3072339E3,2.5165984E3,9.2820526E1,2.595101E3,5.3480757E3,1.1431132E3,5.682283E2,3.6639424E3,1.0564281E2,2.972155E3,1.2855416E3,3.0750596E3,1.3723292E3,3.1218726E2],"tree_param":{"num_deleted":"0","num_feature":"3","num_nodes":"31","size_leaf_vector":"1"}},{"base_weights":[3.0688525E-3,-2.6792055E-1,4.3747422E-1,-6.016449E-1,-1.1287641E-1,3.314067E-1,8.0311614E-1,-8.657996E-1,-4.8549506E-1,-2.57877E-1,-1.5170848E-2,2.1267752E-1,4.597751E-1,7.0450944E-1,1.0392996E0,-5.1444322E-2,-3.861505E-2,-2.5162483E-2,-5.735272E-3,-1.4285915E-2,-2.0928055E-3,-8.297367E-3,1.7389742E-3,-1.1234647E-2,1.1654337E-2,1.39201535E-2,2.4357898E-2,2.4858734E-2,3.7951462E-2,4.9919315E-2,6.820238E-2],"categories":[],"categories_nodes":[],"categories_segments":[],"categories_sizes":[],"default_left":[0,0,0,0,0,0,0,0,0,0,0,0,0,0,0,0,0,0,0,0,0,0,0,0,0,0,0,0,0,0,0],"id":10,"left_children":[1,3,5,7,9,11,13,15,17,19,21,23,25,27,29,-1,-1,-1,-1,-1,-1,-1,-1,-1,-1,-1,-1,-1,-1,-1,-1],"loss_changes":[3.287391E3,8.8976855E2,4.1580005E2,1.669497E2,1.6637038E2,1.26670105E2,5.543213E1,2.4590454E1,2.4901184E1,2.8420563E1,5.2853207E1,3.8639847E1,1.9708862E1,1.8889038E1,8.047546E0,0E0,0E0,0E0,0E0,0E0,0E0,0E0,0E0,0E0,0E0,0E0,0E0,0E0,0E0,0E0,0E0],"parents":[2147483647,0,0,1,1,2,2,3,3,4,4,5,5,6,6,7,7,8,8,9,9,10,10,11,11,12,12,13,13,14,14],"right_children":[2,4,6,8,10,12,14,16,18,20,22,24,26,28,30,-1,-1,-1,-1,-1,-1,-1,-1,-1,-1,-1,-1,-1,-1,-1,-1],"split_conditions":[4.5947353E1,-1.3665028E2,2.2729027E2,-2.6539706E2,-5.3218384E1,1.17187515E2,3.498933E2,-3.6386313E2,1.464797E1,1.8063116E1,-4.8813923E1,-1.0703668E2,3.5229504E1,1.6734267E2,5.556856E2,-5.1444322E-2,-3.861505E-2,-2.5162483E-2,-5.735272E-3,-1.4285915E-2,-2.0928055E-3,-8.297367E-3,1.7389742E-3,-1.1234647E-2,1.1654337E-2,1.39201535E-2,2.4357898E-2,2.4858734E-2,3.7951462E-2,4.9919315E-2,6.820238E-2],"split_indices":[0,0,0,0,0,0,0,0,1,1,1,1,1,1,1,0,0,0,0,0,0,0,0,0,0,0,0,0,0,0,0],"split_type":[0,0,0,0,0,0,0,0,0,0,0,0,0,0,0,0,0,0,0,0,0,0,0,0,0,0,0,0,0,0,0],"sum_hessian":[2.7923691E4,1.7196566E4,1.0727125E4,5.4540757E3,1.1742491E4,8.316525E3,2.4105994E3,1.6637726E3,3.790303E3,4.7264834E3,7.016008E3,4.3218555E3,3.9946702E3,1.7034082E3,7.071912E2,6.0262585E2,1.0611467E3,3.6167637E3,1.7353937E2,4.1865835E3,5.398998E2,1.7453369E3,5.270671E3,1.9223532E2,4.1296206E3,5.25455E2,3.469215E3,3.5676743E2,1.3466407E3,6.316831E2,7.550814E1],"tree_param":{"num_deleted":"0","num_feature":"3","num_nodes":"31","size_leaf_vector":"1"}},{"base_weights":[-3.0958233E-3,-3.1852174E-1,3.3875233E-1,-6.551094E-1,-1.9894122E-1,1.5273373E-1,5.611224E-1,-8.2364315E-1,-5.2599454E-1,-3.4325925E-1,-1.127227E-1,3.1864392E-3,1.9286749E-1,4.871214E-1,9.309177E-1,-5.3655583E-2,-3.8393535E-2,-2.7149457E-2,-3.566061E-3,-3.6156554E-2,-1.6547605E-2,-9.470516E-3,-5.1529513E-4,-1.9782482E-2,1.536991E-3,5.2199992E-3,1.2516125E-2,2.0713571E-2,3.0329248E-2,4.341159E-2,5.9430648E-2],"categories":[],"categories_nodes":[],"categories_segments":[],"categories_sizes":[],"default_left":[0,0,0,0,0,0,0,0,0,0,0,0,0,0,0,0,0,0,0,0,0,0,0,0,0,0,0,0,0,0,0],"id":11,"left_children":[1,3,5,7,9,11,13,15,17,19,21,23,25,27,29,-1,-1,-1,-1,-1,-1,-1,-1,-1,-1,-1,-1,-1,-1,-1,-1],"loss_changes":[2.9986636E3,5.820298E2,5.5196765E2,8.206238E1,1.3277304E2,4.362297E1,1.6588904E2,2.2032593E1,1.6569458E1,1.8420868E1,5.24896E1,1.692339E1,2.9101013E1,4.3847412E1,1.5323486E1,0E0,0E0,0E0,0E0,0E0,0E0,0E0,0E0,0E0,0E0,0E0,0E0,0E0,0E0,0E0,0E0],"parents":[2147483647,0,0,1,1,2,2,3,3,4,4,5,5,6,6,7,7,8,8,9,9,10,10,11,11,12,12,13,13,14,14],"right_children":[2,4,6,8,10,12,14,16,18,20,22,24,26,28,30,-1,-1,-1,-1,-1,-1,-1,-1,-1,-1,-1,-1,-1,-1,-1,-1],"split_conditions":[8.674091E0,-1.78044E2,1.2339306E2,-2.6539706E2,-9.0529495E1,-3.2899075E0,3.1244556E2,-4.3629315E2,1.6350176E1,-3.5619885E2,-3.8525112E1,-2.337373E2,5.4027805E1,2.0611166E2,4.7465213E2,-5.3655583E-2,-3.8393535E-2,-2.7149457E-2,-3.566061E-3,-3.6156554E-2,-1.6547605E-2,-9.470516E-3,-5.1529513E-4,-1.9782482E-2,1.536991E-3,5.2199992E-3,1.2516125E-2,2.0713571E-2,3.0329248E-2,4.341159E-2,5.9430648E-2],"split_indices":[0,0,0,0,1,1,0,0,1,1,0,1,0,0,0,0,0,0,0,0,0,0,0,0,0,0,0,0,0,0,0],"split_type":[0,0,0,0,0,0,0,0,0,0,0,0,0,0,0,0,0,0,0,0,0,0,0,0,0,0,0,0,0,0,0],"sum_hessian":[2.7807754E4,1.4462845E4,1.3344909E4,3.7901348E3,1.067271E4,7.2673027E3,6.077607E3,1.6417622E3,2.1483728E3,3.9903787E3,6.682331E3,1.5378839E3,5.7294185E3,5.066124E3,1.01148285E3,2.966435E2,1.3451187E3,2.0707778E3,7.759492E1,1.23411194E2,3.8669675E3,3.820654E3,2.861677E3,9.851512E1,1.4393689E3,2.2569905E3,3.4724282E3,3.1498086E3,1.9163157E3,8.1709015E2,1.943927E2],"tree_param":{"num_deleted":"0","num_feature":"3","num_nodes":"31","size_leaf_vector":"1"}},{"base_weights":[-8.046592E-4,-2.9731402E-1,3.3759153E-1,-5.9329575E-1,-1.6315693E-1,1.6263057E-1,5.675116E-1,-7.943691E-1,-4.8377877E-1,-2.719022E-1,-5.919687E-2,1.156724E-1,2.9911065E-1,5.037946E-1,8.997087E-1,-5.064251E-2,-3.6163535E-2,-2.9901331E-2,-2.1234853E-2,-3.702412E-2,-1.2999571E-2,-4.8442963E-3,6.645129E-3,-1.1336367E-2,6.6996985E-3,1.3995953E-2,3.3407405E-2,1.9610273E-2,2.8783953E-2,4.159454E-2,5.6765087E-2],"categories":[],"categories_nodes":[],"categories_segments":[],"categories_sizes":[],"default_left":[0,0,0,0,0,0,0,0,0,0,0,0,0,0,0,0,0,0,0,0,0,0,0,0,0,0,0,0,0,0,0],"id":12,"left_children":[1,3,5,7,9,11,13,15,17,19,21,23,25,27,29,-1,-1,-1,-1,-1,-1,-1,-1,-1,-1,-1,-1,-1,-1,-1,-1],"loss_changes":[2.7924648E3,5.8890784E2,5.227506E2,1.01485596E2,1.1539087E2,4.7276794E1,1.18420654E2,2.458142E1,1.9978455E1,2.7652252E1,3.7807922E1,3.449627E1,1.3192566E1,3.7592285E1,1.3476135E1,0E0,0E0,0E0,0E0,0E0,0E0,0E0,0E0,0E0,0E0,0E0,0E0,0E0,0E0,0E0,0E0],"parents":[2147483647,0,0,1,1,2,2,3,3,4,4,5,5,6,6,7,7,8,8,9,9,10,10,11,11,12,12,13,13,14,14],"right_children":[2,4,6,8,10,12,14,16,18,20,22,24,26,28,30,-1,-1,-1,-1,-1,-1,-1,-1,-1,-1,-1,-1,-1,-1,-1,-1],"split_conditions":[1.2964078E1,-1.5389432E2,1.3235965E2,-2.6539706E2,-6.1776794E1,1.0956293E2,3.2354733E2,-4.0731238E2,-2.118263E2,-3.0344095E2,4.936786E1,-1.3006146E2,3.411155E2,1.5299562E2,4.7465213E2,-5.064251E-2,-3.6163535E-2,-2.9901331E-2,-2.1234853E-2,-3.702412E-2,-1.2999571E-2,-4.8442963E-3,6.645129E-3,-1.1336367E-2,6.6996985E-3,1.3995953E-2,3.3407405E-2,1.9610273E-2,2.8783953E-2,4.159454E-2,5.6765087E-2],"split_indices":[0,0,0,0,0,1,0,0,1,1,1,1,1,1,0,0,0,0,0,0,0,0,0,0,0,0,0,0,0,0,0],"split_type":[0,0,0,0,0,0,0,0,0,0,0,0,0,0,0,0,0,0,0,0,0,0,0,0,0,0,0,0,0,0,0],"sum_hessian":[2.7828684E4,1.4832382E4,1.2996302E4,4.625042E3,1.020734E4,7.3811885E3,5.6151133E3,1.6286271E3,2.9964148E3,4.9880635E3,5.2192764E3,5.4930596E3,1.8881285E3,4.713549E3,9.0156476E2,3.966131E2,1.232014E3,1.0182587E3,1.978156E3,1.22131775E2,4.8659316E3,4.3636445E3,8.556319E2,2.7842285E2,5.2146367E3,1.7964629E3,9.1665596E1,1.849285E3,2.8642637E3,7.035668E2,1.97998E2],"tree_param":{"num_deleted":"0","num_feature":"3","num_nodes":"31","size_leaf_vector":"1"}},{"base_weights":[-6.1584165E-4,-2.5031155E-1,3.2688826E-1,-5.483039E-1,-1.2254498E-1,1.8845414E-1,5.476317E-1,-6.783396E-1,-4.2868763E-1,-2.0416124E-1,-1.40287345E-2,1.3155816E-1,2.7386954E-1,4.801103E-1,7.888606E-1,-3.9132364E-2,-3.0407263E-2,-3.3409115E-2,-1.9859023E-2,-1.3160056E-2,-8.0763865E-3,-6.3327523E-3,3.126207E-3,1.5675357E-3,7.602786E-3,8.786276E-3,1.7733088E-2,2.2182284E-2,2.8854338E-2,3.6272433E-2,4.6859857E-2],"categories":[],"categories_nodes":[],"categories_segments":[],"categories_sizes":[],"default_left":[0,0,0,0,0,0,0,0,0,0,0,0,0,0,0,0,0,0,0,0,0,0,0,0,0,0,0,0,0,0,0],"id":13,"left_children":[1,3,5,7,9,11,13,15,17,19,21,23,25,27,29,-1,-1,-1,-1,-1,-1,-1,-1,-1,-1,-1,-1,-1,-1,-1,-1],"loss_changes":[2.2618438E3,5.9744635E2,3.6553418E2,7.295862E1,9.7291794E1,3.570819E1,7.4727295E1,1.6032104E1,1.8264221E1,1.5739014E1,4.0674545E1,9.066681E0,2.3246841E1,1.249292E1,8.791016E0,0E0,0E0,0E0,0E0,0E0,0E0,0E0,0E0,0E0,0E0,0E0,0E0,0E0,0E0,0E0,0E0],"parents":[2147483647,0,0,1,1,2,2,3,3,4,4,5,5,6,6,7,7,8,8,9,9,10,10,11,11,12,12,13,13,14,14],"right_children":[2,4,6,8,10,12,14,16,18,20,22,24,26,28,30,-1,-1,-1,-1,-1,-1,-1,-1,-1,-1,-1,-1,-1,-1,-1,-1],"split_conditions":[2.3042486E1,-1.5825084E2,1.6162555E2,-2.4402911E2,-3.796743E1,9.670569E1,3.302703E2,-3.4346786E2,-3.7777779E-1,-1.00795296E2,-3.3333335E-2,-1E-1,1E-1,3E-1,4.5398453E2,-3.9132364E-2,-3.0407263E-2,-3.3409115E-2,-1.9859023E-2,-1.3160056E-2,-8.0763865E-3,-6.3327523E-3,3.126207E-3,1.5675357E-3,7.602786E-3,8.786276E-3,1.7733088E-2,2.2182284E-2,2.8854338E-2,3.6272433E-2,4.6859857E-2],"split_indices":[1,1,1,1,1,1,1,1,2,1,2,2,2,2,1,0,0,0,0,0,0,0,0,0,0,0,0,0,0,0,0],"split_type":[0,0,0,0,0,0,0,0,0,0,0,0,0,0,0,0,0,0,0,0,0,0,0,0,0,0,0,0,0,0,0],"sum_hessian":[2.7656893E4,1.5692699E4,1.1964193E4,4.7082554E3,1.0984443E4,7.354096E3,4.610097E3,2.2536377E3,2.454618E3,6.2687593E3,4.715684E3,4.41546E3,2.9386365E3,3.6042393E3,1.0058578E3,9.024552E2,1.3511826E3,2.8302893E2,2.1715889E3,2.626436E3,3.642323E3,1.9079747E3,2.8077097E3,7.502421E2,3.6652178E3,1.3282686E3,1.6103678E3,2.6233823E3,9.808569E2,7.087617E2,2.97096E2],"tree_param":{"num_deleted":"0","num_feature":"3","num_nodes":"31","size_leaf_vector":"1"}},{"base_weights":[3.2225852E-3,-2.7143392E-1,3.0579236E-1,-5.8301383E-1,-1.6359171E-1,1.9458619E-1,6.3913083E-1,-8.9441174E-1,-5.259623E-1,-2.6333603E-1,-4.7293924E-2,9.231628E-2,3.1390175E-1,5.6984985E-1,9.0264606E-1,-5.7092577E-2,-4.2178687E-2,-3.2011844E-2,-2.3508187E-2,-1.5933732E-2,-1.1076028E-2,-5.530184E-3,-1.0830594E-3,2.3597197E-3,6.706477E-3,1.2848263E-2,1.8590247E-2,2.5691975E-2,3.1184051E-2,4.154605E-2,5.4170962E-2],"categories":[],"categories_nodes":[],"categories_segments":[],"categories_sizes":[],"default_left":[0,0,0,0,0,0,0,0,0,0,0,0,0,0,0,0,0,0,0,0,0,0,0,0,0,0,0,0,0,0,0],"id":14,"left_children":[1,3,5,7,9,11,13,15,17,19,21,23,25,27,29,-1,-1,-1,-1,-1,-1,-1,-1,-1,-1,-1,-1,-1,-1,-1,-1],"loss_changes":[2.301006E3,4.8759058E2,4.882583E2,6.582092E1,1.250755E2,1.20536835E2,5.964746E1,6.286957E0,1.9823181E1,1.3361359E1,8.07884E0,1.0034088E1,1.4937195E1,7.5551147E0,7.972534E0,0E0,0E0,0E0,0E0,0E0,0E0,0E0,0E0,0E0,0E0,0E0,0E0,0E0,0E0,0E0,0E0],"parents":[2147483647,0,0,1,1,2,2,3,3,4,4,5,5,6,6,7,7,8,8,9,9,10,10,11,11,12,12,13,13,14,14],"right_children":[2,4,6,8,10,12,14,16,18,20,22,24,26,28,30,-1,-1,-1,-1,-1,-1,-1,-1,-1,-1,-1,-1,-1,-1,-1,-1],"split_conditions":[1.0045913E1,-1.78044E2,1.9126907E2,-3.6386313E2,-6.1776794E1,8.9571495E1,3.498933E2,-5.4609845E2,-2.6539706E2,-1.1867777E2,-4.011423E1,4.5947353E1,1.3235965E2,2.4198659E2,4.7465213E2,-5.7092577E-2,-4.2178687E-2,-3.2011844E-2,-2.3508187E-2,-1.5933732E-2,-1.1076028E-2,-5.530184E-3,-1.0830594E-3,2.3597197E-3,6.706477E-3,1.2848263E-2,1.8590247E-2,2.5691975E-2,3.1184051E-2,4.154605E-2,5.4170962E-2],"split_indices":[0,0,0,0,0,0,0,0,0,0,0,0,0,0,0,0,0,0,0,0,0,0,0,0,0,0,0,0,0,0,0],"split_type":[0,0,0,0,0,0,0,0,0,0,0,0,0,0,0,0,0,0,0,0,0,0,0,0,0,0,0,0,0,0,0],"sum_hessian":[2.7686686E4,1.4512827E4,1.3173857E4,3.7304194E3,1.0782407E4,9.879506E3,3.294352E3,5.753537E2,3.1550657E3,5.8036055E3,4.9788022E3,5.3207026E3,4.558803E3,2.6110437E3,6.8330853E2,9.440473E1,4.8094897E2,1.0316956E3,2.12337E3,2.495043E3,3.3085623E3,1.4339081E3,3.5448943E3,2.560126E3,2.7605767E3,2.3013315E3,2.257472E3,1.2847885E3,1.3262552E3,4.9321353E2,1.9009499E2],"tree_param":{"num_deleted":"0","num_feature":"3","num_nodes":"31","size_leaf_vector":"1"}},{"base_weights":[8.16639E-3,-2.8952247E-1,2.5728014E-1,-6.3746434E-1,-2.0229039E-1,1.1825841E-1,4.9755204E-1,-8.607706E-1,-5.71772E-1,-2.9765433E-1,-1.00883335E-1,4.3924242E-2,2.077212E-1,4.3871218E-1,8.121725E-1,-4.4948433E-2,-1.7545713E-2,-2.9253302E-2,-5.519236E-3,-1.5268251E-2,2.0070763E-2,-6.6776196E-3,2.987125E-3,2.824387E-4,9.800178E-3,-8.1951115E-3,1.1135076E-2,1.9405974E-2,2.8271196E-2,3.752248E-2,5.1962174E-2],"categories":[],"categories_nodes":[],"categories_segments":[],"categories_sizes":[],"default_left":[0,0,0,0,0,0,0,0,0,0,0,0,0,0,0,0,0,0,0,0,0,0,0,0,0,0,0,0,0,0,0],"id":15,"left_children":[1,3,5,7,9,11,13,15,17,19,21,23,25,27,29,-1,-1,-1,-1,-1,-1,-1,-1,-1,-1,-1,-1,-1,-1,-1,-1],"loss_changes":[2.0443237E3,3.810597E2,5.0125128E2,3.643152E1,9.709177E1,6.322322E1,1.0147058E2,1.078894E1,1.1883118E1,2.8018585E1,2.5556995E1,3.02361E1,2.4057312E1,2.9500916E1,1.13497925E1,0E0,0E0,0E0,0E0,0E0,0E0,0E0,0E0,0E0,0E0,0E0,0E0,0E0,0E0,0E0,0E0],"parents":[2147483647,0,0,1,1,2,2,3,3,4,4,5,5,6,6,7,7,8,8,9,9,10,10,11,11,12,12,13,13,14,14],"right_children":[2,4,6,8,10,12,14,16,18,20,22,24,26,28,30,-1,-1,-1,-1,-1,-1,-1,-1,-1,-1,-1,-1,-1,-1,-1,-1],"split_conditions":[-1.648517E1,-2.1776735E2,1.3235965E2,-3.6386313E2,-9.0231155E1,5.7396973E1,3.2354733E2,-1.5267416E2,4.219938E0,1.9282684E2,2.1404924E1,7.5303894E1,-1.1140448E2,2.2924084E2,4.7465213E2,-4.4948433E-2,-1.7545713E-2,-2.9253302E-2,-5.519236E-3,-1.5268251E-2,2.0070763E-2,-6.6776196E-3,2.987125E-3,2.824387E-4,9.800178E-3,-8.1951115E-3,1.1135076E-2,1.9405974E-2,2.8271196E-2,3.752248E-2,5.1962174E-2],"split_indices":[0,0,0,0,0,0,0,1,1,1,1,1,1,1,0,0,0,0,0,0,0,0,0,0,0,0,0,0,0,0,0],"split_type":[0,0,0,0,0,0,0,0,0,0,0,0,0,0,0,0,0,0,0,0,0,0,0,0,0,0,0,0,0,0,0],"sum_hessian":[2.756499E4,1.2558056E4,1.5006935E4,2.5160398E3,1.0042016E4,9.507418E3,5.499516E3,5.6917084E2,1.9468691E3,5.174212E3,4.8678037E3,5.193586E3,4.313832E3,4.635067E3,8.6444916E2,5.28791E2,4.03798E1,1.892084E3,5.4785095E1,5.1183203E3,5.589151E1,4.045229E3,8.2257446E2,4.1501177E3,1.0434685E3,1.6676927E2,4.147063E3,3.315383E3,1.3196836E3,6.830785E2,1.8137067E2],"tree_param":{"num_deleted":"0","num_feature":"3","num_nodes":"31","size_leaf_vector":"1"}},{"base_weights":[3.084939E-3,-2.0854521E-1,2.95289E-1,-4.5957604E-1,-8.657053E-2,1.7300822E-1,4.6363205E-1,-6.039961E-1,-3.520382E-1,-1.6174528E-1,-1.5017714E-2,1.2864493E-1,2.7560297E-1,4.0510306E-1,6.9874924E-1,-3.4729265E-2,-2.5869418E-2,-2.327115E-2,-1.6904583E-2,-1.0490555E-2,-6.398327E-3,-3.7943707E-3,4.003012E-3,1.9647006E-3,8.328299E-3,1.072103E-2,1.8643241E-2,1.70756E-2,2.247475E-2,3.3245977E-2,5.000154E-2],"categories":[],"categories_nodes":[],"categories_segments":[],"categories_sizes":[],"default_left":[0,0,0,0,0,0,0,0,0,0,0,0,0,0,0,0,0,0,0,0,0,0,0,0,0,0,0,0,0,0,0],"id":16,"left_children":[1,3,5,7,9,11,13,15,17,19,21,23,25,27,29,-1,-1,-1,-1,-1,-1,-1,-1,-1,-1,-1,-1,-1,-1,-1,-1],"loss_changes":[1.6965074E3,4.8713812E2,2.3713092E2,8.058789E1,5.7601402E1,3.035231E1,6.642993E1,1.7051392E1,4.5621643E0,8.452026E0,3.176612E1,1.5792656E1,1.19084015E1,1.0810852E1,9.169525E0,0E0,0E0,0E0,0E0,0E0,0E0,0E0,0E0,0E0,0E0,0E0,0E0,0E0,0E0,0E0,0E0],"parents":[2147483647,0,0,1,1,2,2,3,3,4,4,5,5,6,6,7,7,8,8,9,9,10,10,11,11,12,12,13,13,14,14],"right_children":[2,4,6,8,10,12,14,16,18,20,22,24,26,28,30,-1,-1,-1,-1,-1,-1,-1,-1,-1,-1,-1,-1,-1,-1,-1,-1],"split_conditions":[2.8190123E1,-1.4482927E2,1.5299562E2,-2.4402911E2,-4.53046E1,2E-1,3.302703E2,-3.216411E2,-3.7777779E-1,-9.864443E1,1E-1,5.8503555E1,1.0322083E2,1.9957092E2,5.556856E2,-3.4729265E-2,-2.5869418E-2,-2.327115E-2,-1.6904583E-2,-1.0490555E-2,-6.398327E-3,-3.7943707E-3,4.003012E-3,1.9647006E-3,8.328299E-3,1.072103E-2,1.8643241E-2,1.70756E-2,2.247475E-2,3.3245977E-2,5.000154E-2],"split_indices":[1,1,1,1,1,2,1,1,2,1,2,1,1,1,1,0,0,0,0,0,0,0,0,0,0,0,0,0,0,0,0],"split_type":[0,0,0,0,0,0,0,0,0,0,0,0,0,0,0,0,0,0,0,0,0,0,0,0,0,0,0,0,0,0,0],"sum_hessian":[2.7432186E4,1.5909756E4,1.1522429E4,5.2016655E3,1.0708091E4,6.67551E3,4.846919E3,2.2181462E3,2.983519E3,5.221267E3,5.4868237E3,4.6618984E3,2.0136111E3,3.8830205E3,9.638986E2,1.0807222E3,1.1374242E3,3.2323788E2,2.6602812E3,2.1527612E3,3.0685059E3,3.345322E3,2.1415015E3,1.3896328E3,3.2722656E3,1.2380332E3,7.755779E2,1.5998892E3,2.2831313E3,8.694755E2,9.442312E1],"tree_param":{"num_deleted":"0","num_feature":"3","num_nodes":"31","size_leaf_vector":"1"}},{"base_weights":[2.396055E-3,-1.9721381E-1,3.1791013E-1,-4.4841895E-1,-8.318193E-2,2.0958014E-1,5.6843466E-1,-6.6894096E-1,-3.564741E-1,-1.6942212E-1,7.231601E-4,1.06099054E-1,2.6385966E-1,5.147564E-1,8.910406E-1,-4.3719575E-2,-3.020728E-2,-2.3268541E-2,-1.6001172E-2,-1.0294436E-2,-7.1524577E-3,-1.758573E-3,1.3096208E-3,-1.0483265E-3,6.375119E-3,6.726152E-3,1.3918708E-2,2.2307357E-2,2.85837E-2,4.2181496E-2,5.3927895E-2],"categories":[],"categories_nodes":[],"categories_segments":[],"categories_sizes":[],"default_left":[0,0,0,0,0,0,0,0,0,0,0,0,0,0,0,0,0,0,0,0,0,0,0,0,0,0,0,0,0,0,0],"id":17,"left_children":[1,3,5,7,9,11,13,15,17,19,21,23,25,27,29,-1,-1,-1,-1,-1,-1,-1,-1,-1,-1,-1,-1,-1,-1,-1,-1],"loss_changes":[1.7224407E3,4.798128E2,2.874967E2,1.05799805E2,8.337762E1,4.153772E1,5.4931885E1,1.9942566E1,1.451001E1,5.435318E0,5.341154E0,6.931669E0,9.073547E0,1.0463196E1,3.1345825E0,0E0,0E0,0E0,0E0,0E0,0E0,0E0,0E0,0E0,0E0,0E0,0E0,0E0,0E0,0E0,0E0],"parents":[2147483647,0,0,1,1,2,2,3,3,4,4,5,5,6,6,7,7,8,8,9,9,10,10,11,11,12,12,13,13,14,14],"right_children":[2,4,6,8,10,12,14,16,18,20,22,24,26,28,30,-1,-1,-1,-1,-1,-1,-1,-1,-1,-1,-1,-1,-1,-1,-1,-1],"split_conditions":[4.449253E1,-1.3665028E2,1.9126907E2,-2.6539706E2,-3.8525112E1,8.372044E1,3.844715E2,-4.0731238E2,-2.1776735E2,-9.0231155E1,-4.0149393E0,-1.6666667E-1,-1.6666667E-1,2.4198659E2,5.406862E2,-4.3719575E-2,-3.020728E-2,-2.3268541E-2,-1.6001172E-2,-1.0294436E-2,-7.1524577E-3,-1.758573E-3,1.3096208E-3,-1.0483265E-3,6.375119E-3,6.726152E-3,1.3918708E-2,2.2307357E-2,2.85837E-2,4.2181496E-2,5.3927895E-2],"split_indices":[0,0,0,0,0,0,0,0,0,0,0,2,2,0,0,0,0,0,0,0,0,0,0,0,0,0,0,0,0,0,0],"split_type":[0,0,0,0,0,0,0,0,0,0,0,0,0,0,0,0,0,0,0,0,0,0,0,0,0,0,0,0,0,0,0],"sum_hessian":[2.7347135E4,1.6750385E4,1.059675E4,5.2287783E3,1.1521606E4,7.3991147E3,3.197635E3,1.5367463E3,3.692032E3,5.6812383E3,5.840368E3,2.546775E3,4.85234E3,2.7437063E3,4.5392868E2,3.654613E2,1.171285E3,9.2294763E2,2.7690845E3,2.3814875E3,3.299751E3,2.4239038E3,3.4164644E3,3.6714682E2,2.179628E3,4.9063528E2,4.3617046E3,1.2480857E3,1.4956206E3,3.6671066E2,8.721801E1],"tree_param":{"num_deleted":"0","num_feature":"3","num_nodes":"31","size_leaf_vector":"1"}},{"base_weights":[-8.829642E-5,-2.8990212E-1,1.7985258E-1,-5.631429E-1,-2.1447888E-1,5.6599293E-2,3.8133946E-1,-8.6812353E-1,-5.355492E-1,-2.7453995E-1,-1.2451699E-1,-3.3471263E-3,1.2097267E-1,3.178838E-1,6.171793E-1,-4.3907717E-2,-7.7135204E-3,-3.0107489E-2,-2.4356464E-2,-1.6371947E-2,-1.1356554E-2,-8.669478E-3,-5.2486686E-3,-3.3310328E-3,1.9872282E-3,-6.33273E-4,7.3192725E-3,1.4331149E-2,2.131175E-2,2.5661847E-2,3.638052E-2],"categories":[],"categories_nodes":[],"categories_segments":[],"categories_sizes":[],"default_left":[0,0,0,0,0,0,0,0,0,0,0,0,0,0,0,0,0,0,0,0,0,0,0,0,0,0,0,0,0,0,0],"id":18,"left_children":[1,3,5,7,9,11,13,15,17,19,21,23,25,27,29,-1,-1,-1,-1,-1,-1,-1,-1,-1,-1,-1,-1,-1,-1,-1,-1],"loss_changes":[1.4260393E3,2.1574908E2,4.1894165E2,1.8598572E1,4.43284E1,4.0398376E1,9.562659E1,1.1988068E0,6.4140015E0,1.2270874E1,3.1231155E0,1.4785207E1,1.7145287E1,1.6974487E1,1.5196838E1,0E0,0E0,0E0,0E0,0E0,0E0,0E0,0E0,0E0,0E0,0E0,0E0,0E0,0E0,0E0,0E0],"parents":[2147483647,0,0,1,1,2,2,3,3,4,4,5,5,6,6,7,7,8,8,9,9,10,10,11,11,12,12,13,13,14,14],"right_children":[2,4,6,8,10,12,14,16,18,20,22,24,26,28,30,-1,-1,-1,-1,-1,-1,-1,-1,-1,-1,-1,-1,-1,-1,-1,-1],"split_conditions":[-4.3461205E1,-2.3867758E2,1.16259315E2,-4.9957596E2,-1.00795296E2,2.8190123E1,2.9339902E2,2.6666668E-1,-3.216411E2,-1.5825084E2,-1.6666667E-1,-3.3333335E-2,-1.6666667E-1,2.2924084E2,3.671222E2,-4.3907717E-2,-7.7135204E-3,-3.0107489E-2,-2.4356464E-2,-1.6371947E-2,-1.1356554E-2,-8.669478E-3,-5.2486686E-3,-3.3310328E-3,1.9872282E-3,-6.33273E-4,7.3192725E-3,1.4331149E-2,2.131175E-2,2.5661847E-2,3.638052E-2],"split_indices":[1,1,1,1,1,1,1,2,1,1,2,2,2,1,1,0,0,0,0,0,0,0,0,0,0,0,0,0,0,0,0],"split_type":[0,0,0,0,0,0,0,0,0,0,0,0,0,0,0,0,0,0,0,0,0,0,0,0,0,0,0,0,0,0,0],"sum_hessian":[2.7343295E4,1.0473693E4,1.6869602E4,2.264277E3,8.209416E3,1.0467635E4,6.401967E3,1.8533958E2,2.0789375E3,4.9215796E3,3.2878364E3,5.4206816E3,5.046953E3,5.046493E3,1.355474E3,1.8254437E2,2.7952068E0,8.703523E2,1.2085853E3,2.323313E3,2.5982668E3,9.3694775E2,2.3508887E3,2.195857E3,3.2248245E3,8.064703E2,4.240483E3,3.9193513E3,1.1271416E3,7.0116016E2,6.543138E2],"tree_param":{"num_deleted":"0","num_feature":"3","num_nodes":"31","size_leaf_vector":"1"}},{"base_weights":[3.7943115E-3,-2.5048888E-1,2.1572942E-1,-5.218471E-1,-1.7352599E-1,8.1557415E-2,4.0659603E-1,-7.727205E-1,-4.6193314E-1,-2.574843E-1,-9.028497E-2,4.8548445E-2,1.7965204E-1,3.5788047E-1,7.2531325E-1,-5.123211E-2,-3.6159746E-2,-2.57788E-2,-2.0934312E-2,-1.5386653E-2,-1.0284314E-2,-6.813156E-3,-2.4260245E-3,2.0887307E-3,1.0372995E-2,7.278041E-3,1.2337593E-2,1.5763564E-2,2.382975E-2,3.179457E-2,4.5871343E-2],"categories":[],"categories_nodes":[],"categories_segments":[],"categories_sizes":[],"default_left":[0,0,0,0,0,0,0,0,0,0,0,0,0,0,0,0,0,0,0,0,0,0,0,0,0,0,0,0,0,0,0],"id":19,"left_children":[1,3,5,7,9,11,13,15,17,19,21,23,25,27,29,-1,-1,-1,-1,-1,-1,-1,-1,-1,-1,-1,-1,-1,-1,-1,-1],"loss_changes":[1.4668835E3,2.5832184E2,3.8015186E2,4.0729065E1,6.73551E1,2.8223015E1,9.4885376E1,5.8150635E0,4.908722E0,1.2428101E1,9.292583E0,7.015131E0,4.9848404E0,2.674701E1,1.3357269E1,0E0,0E0,0E0,0E0,0E0,0E0,0E0,0E0,0E0,0E0,0E0,0E0,0E0,0E0,0E0,0E0],"parents":[2147483647,0,0,1,1,2,2,3,3,4,4,5,5,6,6,7,7,8,8,9,9,10,10,11,11,12,12,13,13,14,14],"right_children":[2,4,6,8,10,12,14,16,18,20,22,24,26,28,30,-1,-1,-1,-1,-1,-1,-1,-1,-1,-1,-1,-1,-1,-1,-1,-1],"split_conditions":[-1.648517E1,-2.0594276E2,1.17187515E2,-3.6386313E2,-9.0231155E1,7.819311E1,3.2354733E2,-5.4609845E2,-2.6539706E2,-1.3665028E2,-5.3218384E1,4E-1,2E-1,2.2729027E2,4.344352E2,-5.123211E-2,-3.6159746E-2,-2.57788E-2,-2.0934312E-2,-1.5386653E-2,-1.0284314E-2,-6.813156E-3,-2.4260245E-3,2.0887307E-3,1.0372995E-2,7.278041E-3,1.2337593E-2,1.5763564E-2,2.382975E-2,3.179457E-2,4.5871343E-2],"split_indices":[0,0,0,0,0,0,0,0,0,0,0,2,2,0,0,0,0,0,0,0,0,0,0,0,0,0,0,0,0,0,0],"split_type":[0,0,0,0,0,0,0,0,0,0,0,0,0,0,0,0,0,0,0,0,0,0,0,0,0,0,0,0,0,0,0],"sum_hessian":[2.721718E4,1.23723955E4,1.4844785E4,2.7324512E3,9.639944E3,8.717876E3,6.126909E3,5.24472E2,2.2079792E3,4.798253E3,4.841692E3,6.524027E3,2.1938489E3,5.316423E3,8.104861E2,8.2932175E1,4.4153983E2,9.806606E2,1.2273186E3,2.4330413E3,2.3652117E3,2.3035127E3,2.5381792E3,6.2585117E3,2.655153E2,1.4568438E3,7.370051E2,3.9149275E3,1.4014955E3,5.5599896E2,2.5448709E2],"tree_param":{"num_deleted":"0","num_feature":"3","num_nodes":"31","size_leaf_vector":"1"}},{"base_weights":[-1.1955459E-3,-1.7457642E-1,2.5151786E-1,-3.95213E-1,-7.359426E-2,1.6655129E-1,4.612104E-1,-5.1662904E-1,-2.9843912E-1,-1.2973475E-1,-1.3988101E-3,1.1480607E-1,2.3486449E-1,4.0207955E-1,6.9327253E-1,-3.7421156E-2,-2.4790252E-2,-2.1528618E-2,-1.4131616E-2,-8.800025E-3,-4.4321376E-3,-4.6862634E-3,2.959131E-3,3.61459E-4,6.7586335E-3,9.201346E-3,1.5926687E-2,1.2079636E-2,2.1869022E-2,3.2598164E-2,4.745986E-2],"categories":[],"categories_nodes":[],"categories_segments":[],"categories_sizes":[],"default_left":[0,0,0,0,0,0,0,0,0,0,0,0,0,0,0,0,0,0,0,0,0,0,0,0,0,0,0,0,0,0,0],"id":20,"left_children":[1,3,5,7,9,11,13,15,17,19,21,23,25,27,29,-1,-1,-1,-1,-1,-1,-1,-1,-1,-1,-1,-1,-1,-1,-1,-1],"loss_changes":[1.1912042E3,3.5922476E2,1.9702179E2,5.9329346E1,4.4838177E1,2.7807114E1,4.3485718E1,1.0460449E1,5.76709E0,1.1815941E1,2.7079271E1,9.819683E0,1.4372772E1,1.4307434E1,6.213501E0,0E0,0E0,0E0,0E0,0E0,0E0,0E0,0E0,0E0,0E0,0E0,0E0,0E0,0E0,0E0,0E0],"parents":[2147483647,0,0,1,1,2,2,3,3,4,4,5,5,6,6,7,7,8,8,9,9,10,10,11,11,12,12,13,13,14,14],"right_children":[2,4,6,8,10,12,14,16,18,20,22,24,26,28,30,-1,-1,-1,-1,-1,-1,-1,-1,-1,-1,-1,-1,-1,-1,-1,-1],"split_conditions":[3.3533863E1,-1.4482927E2,1.9957092E2,-2.3867758E2,-2.9149935E1,1.1189844E2,3.671222E2,-4.9957596E2,-3.7777779E-1,-8.450272E1,-3.3333335E-2,-1.6666667E-1,2E-1,0E0,5.556856E2,-3.7421156E-2,-2.4790252E-2,-2.1528618E-2,-1.4131616E-2,-8.800025E-3,-4.4321376E-3,-4.6862634E-3,2.959131E-3,3.61459E-4,6.7586335E-3,9.201346E-3,1.5926687E-2,1.2079636E-2,2.1869022E-2,3.2598164E-2,4.745986E-2],"split_indices":[1,1,1,1,1,1,1,1,2,1,2,2,2,2,1,0,0,0,0,0,0,0,0,0,0,0,0,0,0,0,0],"split_type":[0,0,0,0,0,0,0,0,0,0,0,0,0,0,0,0,0,0,0,0,0,0,0,0,0,0,0,0,0,0,0],"sum_hessian":[2.7184715E4,1.6123239E4,1.1061477E4,5.061475E3,1.1061765E4,7.873116E3,3.1883599E3,2.2429944E3,2.8184807E3,6.2223525E3,4.839412E3,4.4813257E3,3.3917903E3,2.5430957E3,6.4526404E2,1.8201608E2,2.0609785E3,2.9833987E2,2.5201409E3,2.9253733E3,3.296979E3,1.9171368E3,2.9222751E3,7.135724E2,3.7677534E3,2.1118354E3,1.279955E3,4.5993896E2,2.0831567E3,5.5864044E2,8.66236E1],"tree_param":{"num_deleted":"0","num_feature":"3","num_nodes":"31","size_leaf_vector":"1"}},{"base_weights":[2.2091307E-3,-1.7017722E-1,2.775799E-1,-4.030725E-1,-7.575708E-2,1.8874882E-1,4.9731722E-1,-5.7987237E-1,-3.246037E-1,-1.5142548E-1,2.0453273E-3,1.342066E-1,2.6696503E-1,4.487895E-1,7.919937E-1,-4.007165E-2,-2.6643151E-2,-2.3084516E-2,-1.4778783E-2,-3.206433E-2,-7.26392E-3,-1.7537136E-2,6.5541884E-4,-5.6024914E-4,7.7050733E-3,6.078484E-3,1.45328E-2,4.2645787E-3,2.3008594E-2,3.7363585E-2,5.3397965E-2],"categories":[],"categories_nodes":[],"categories_segments":[],"categories_sizes":[],"default_left":[0,0,0,0,0,0,0,0,0,0,0,0,0,0,0,0,0,0,0,0,0,0,0,0,0,0,0,0,0,0,0],"id":21,"left_children":[1,3,5,7,9,11,13,15,17,19,21,23,25,27,29,-1,-1,-1,-1,-1,-1,-1,-1,-1,-1,-1,-1,-1,-1,-1,-1],"loss_changes":[1.2873279E3,3.6671878E2,2.0370312E2,6.6553955E1,6.987033E1,3.1689423E1,4.2616943E1,1.4962463E1,1.3131805E1,1.8024124E1,2.2846588E1,1.2682594E1,1.0485138E1,1.064563E1,4.4298706E0,0E0,0E0,0E0,0E0,0E0,0E0,0E0,0E0,0E0,0E0,0E0,0E0,0E0,0E0,0E0,0E0],"parents":[2147483647,0,0,1,1,2,2,3,3,4,4,5,5,6,6,7,7,8,8,9,9,10,10,11,11,12,12,13,13,14,14],"right_children":[2,4,6,8,10,12,14,16,18,20,22,24,26,28,30,-1,-1,-1,-1,-1,-1,-1,-1,-1,-1,-1,-1,-1,-1,-1,-1],"split_conditions":[4.449253E1,-1.4377617E2,1.9474603E2,-2.6539706E2,-3.8525112E1,1.17187515E2,3.844715E2,-4.3629315E2,-2.4916284E2,-3.5619885E2,-2.0030379E2,-2.4095905E1,3.182586E1,-1.8853958E1,5.556856E2,-4.007165E-2,-2.6643151E-2,-2.3084516E-2,-1.4778783E-2,-3.206433E-2,-7.26392E-3,-1.7537136E-2,6.5541884E-4,-5.6024914E-4,7.7050733E-3,6.078484E-3,1.45328E-2,4.2645787E-3,2.3008594E-2,3.7363585E-2,5.3397965E-2],"split_indices":[0,0,0,0,0,0,0,0,1,1,1,1,1,1,1,0,0,0,0,0,0,0,0,0,0,0,0,0,0,0,0],"split_type":[0,0,0,0,0,0,0,0,0,0,0,0,0,0,0,0,0,0,0,0,0,0,0,0,0,0,0,0,0,0,0],"sum_hessian":[2.711668E4,1.6677002E4,1.0439679E4,4.8098447E3,1.1867157E4,7.4356133E3,3.0040647E3,1.4765674E3,3.3332773E3,6.015605E3,5.8515522E3,4.38238E3,3.0532334E3,2.581468E3,4.225968E2,2.5564294E2,1.2209243E3,5.798758E2,2.7534014E3,7.3271484E1,5.9423335E3,1.7698541E2,5.674567E3,5.2747833E2,3.8549019E3,4.286525E2,2.6245808E3,7.863819E1,2.5028298E3,3.6685364E2,5.574317E1],"tree_param":{"num_deleted":"0","num_feature":"3","num_nodes":"31","size_leaf_vector":"1"}},{"base_weights":[-5.134216E-4,-2.0800339E-1,1.9166395E-1,-4.701439E-1,-1.3634755E-1,1.280911E-1,5.0639546E-1,-7.052817E-1,-4.179548E-1,-2.1169835E-1,-7.145385E-2,5.929031E-2,2.3765963E-1,4.279672E-1,7.3408836E-1,-3.6834992E-2,-1.5910206E-2,-2.3092335E-2,-1.6723055E-2,-1.0951901E-2,1.9674355E-2,-4.684925E-3,3.7536118E-3,-2.528262E-3,4.2789476E-3,2.9942985E-3,1.265756E-2,1.5694974E-2,2.4030438E-2,3.475621E-2,5.4024197E-2],"categories":[],"categories_nodes":[],"categories_segments":[],"categories_sizes":[],"default_left":[0,0,0,0,0,0,0,0,0,0,0,0,0,0,0,0,0,0,0,0,0,0,0,0,0,0,0,0,0,0,0],"id":22,"left_children":[1,3,5,7,9,11,13,15,17,19,21,23,25,27,29,-1,-1,-1,-1,-1,-1,-1,-1,-1,-1,-1,-1,-1,-1,-1,-1],"loss_changes":[1.0773046E3,2.4395758E2,2.8057513E2,3.3922974E1,4.9878586E1,8.796219E1,4.1770935E1,5.907196E0,8.21698E0,2.1055725E1,1.788086E1,2.0711601E1,1.2381088E1,1.0389282E1,7.3793945E0,0E0,0E0,0E0,0E0,0E0,0E0,0E0,0E0,0E0,0E0,0E0,0E0,0E0,0E0,0E0,0E0],"parents":[2147483647,0,0,1,1,2,2,3,3,4,4,5,5,6,6,7,7,8,8,9,9,10,10,11,11,12,12,13,13,14,14],"right_children":[2,4,6,8,10,12,14,16,18,20,22,24,26,28,30,-1,-1,-1,-1,-1,-1,-1,-1,-1,-1,-1,-1,-1,-1,-1,-1],"split_conditions":[-7.290584E0,-2.0201251E2,2.1844243E2,-3.6386313E2,-9.0231155E1,1.01120834E2,3.498933E2,-1.5267416E2,-1.9669464E2,1.826197E2,4.566358E1,-2.4095905E1,0E0,1.9607614E2,5.556856E2,-3.6834992E-2,-1.5910206E-2,-2.3092335E-2,-1.6723055E-2,-1.0951901E-2,1.9674355E-2,-4.684925E-3,3.7536118E-3,-2.528262E-3,4.2789476E-3,2.9942985E-3,1.265756E-2,1.5694974E-2,2.4030438E-2,3.475621E-2,5.4024197E-2],"split_indices":[0,0,0,0,0,0,0,1,1,1,1,1,1,1,1,0,0,0,0,0,0,0,0,0,0,0,0,0,0,0,0],"split_type":[0,0,0,0,0,0,0,0,0,0,0,0,0,0,0,0,0,0,0,0,0,0,0,0,0,0,0,0,0,0,0],"sum_hessian":[2.7015125E4,1.2990003E4,1.4025122E4,2.787361E3,1.0202643E4,1.1669415E4,2.3557068E3,5.040142E2,2.283347E3,4.7199023E3,5.4827397E3,7.1692236E3,4.500192E3,1.7543163E3,6.013904E2,4.653404E2,3.8673782E1,1.4936284E3,7.8971857E2,4.663976E3,5.5926384E1,4.760406E3,7.223339E2,1.3841565E3,5.785067E3,3.611123E2,4.1390796E3,5.5615674E2,1.1981595E3,5.432858E2,5.8104595E1],"tree_param":{"num_deleted":"0","num_feature":"3","num_nodes":"31","size_leaf_vector":"1"}},{"base_weights":[-2.1255063E-3,-1.5713918E-1,2.1598494E-1,-3.4811717E-1,-6.3296966E-2,1.4878781E-1,4.0865457E-1,-5.573281E-1,-2.9836437E-1,-1.1437133E-1,-9.134356E-3,1.08806014E-1,2.318857E-1,3.5370195E-1,5.765082E-1,-3.5129916E-2,-2.6298989E-2,-1.7557062E-2,-1.1975774E-2,-7.787015E-3,-3.606811E-3,-1.4063391E-3,7.822915E-3,2.0387657E-3,7.353963E-3,7.826987E-3,1.4469846E-2,1.5767345E-2,2.110547E-2,2.6723916E-2,4.44184E-2],"categories":[],"categories_nodes":[],"categories_segments":[],"categories_sizes":[],"default_left":[0,0,0,0,0,0,0,0,0,0,0,0,0,0,0,0,0,0,0,0,0,0,0,0,0,0,0,0,0,0,0],"id":23,"left_children":[1,3,5,7,9,11,13,15,17,19,21,23,25,27,29,-1,-1,-1,-1,-1,-1,-1,-1,-1,-1,-1,-1,-1,-1,-1,-1],"loss_changes":[9.115897E2,2.8243826E2,1.4496112E2,5.388263E1,2.9236523E1,2.7572067E1,2.6507874E1,4.1683044E0,1.2951569E1,9.492874E0,1.6140062E1,1.4601105E1,1.1643265E1,5.59787E0,8.866257E0,0E0,0E0,0E0,0E0,0E0,0E0,0E0,0E0,0E0,0E0,0E0,0E0,0E0,0E0,0E0,0E0],"parents":[2147483647,0,0,1,1,2,2,3,3,4,4,5,5,6,6,7,7,8,8,9,9,10,10,11,11,12,12,13,13,14,14],"right_children":[2,4,6,8,10,12,14,16,18,20,22,24,26,28,30,-1,-1,-1,-1,-1,-1,-1,-1,-1,-1,-1,-1,-1,-1,-1,-1],"split_conditions":[3.0074345E1,-1.397916E2,2.073898E2,-3.216411E2,-3.796743E1,2E-1,3.5373953E2,-4.9957596E2,-1.9669464E2,-3.3333335E-2,2.6666668E-1,7.5303894E1,1.0100293E2,2.792786E2,5.556856E2,-3.5129916E-2,-2.6298989E-2,-1.7557062E-2,-1.1975774E-2,-7.787015E-3,-3.606811E-3,-1.4063391E-3,7.822915E-3,2.0387657E-3,7.353963E-3,7.826987E-3,1.4469846E-2,1.5767345E-2,2.110547E-2,2.6723916E-2,4.44184E-2],"split_indices":[1,1,1,1,1,2,1,1,1,2,2,1,1,1,1,0,0,0,0,0,0,0,0,0,0,0,0,0,0,0,0],"split_type":[0,0,0,0,0,0,0,0,0,0,0,0,0,0,0,0,0,0,0,0,0,0,0,0,0,0,0,0,0,0,0],"sum_hessian":[2.6960049E4,1.5759713E4,1.1200335E4,5.1915977E3,1.0568115E4,8.305433E3,2.894902E3,9.9546387E2,4.196134E3,5.43855E3,5.1295654E3,5.609015E3,2.6964177E3,2.1832483E3,7.1165375E2,1.7288615E2,8.225777E2,2.209575E3,1.9865591E3,2.7460896E3,2.6924602E3,4.602516E3,5.2704926E2,2.0201908E3,3.5888245E3,1.1688362E3,1.5275815E3,1.4024982E3,7.807501E2,6.2952527E2,8.212848E1],"tree_param":{"num_deleted":"0","num_feature":"3","num_nodes":"31","size_leaf_vector":"1"}},{"base_weights":[-1.01836E-3,-2.312452E-1,1.4887694E-1,-4.6927166E-1,-1.6432837E-1,4.670569E-2,3.4170014E-1,-6.8139076E-1,-3.982437E-1,-2.517001E-1,-1.2777251E-1,-9.883659E-2,6.5941E-2,2.6623297E-1,4.9973017E-1,-3.5767727E-2,-1.16766505E-2,-2.0921431E-2,-1.2154611E-2,-3.1189678E-2,-1.1810652E-2,-7.245709E-3,-5.829053E-4,-6.5568076E-3,5.5869534E-3,2.2540698E-3,7.830737E-3,-1.5511244E-3,1.3720396E-2,2.1892488E-2,3.5801545E-2],"categories":[],"categories_nodes":[],"categories_segments":[],"categories_sizes":[],"default_left":[0,0,0,0,0,0,0,0,0,0,0,0,0,0,0,0,0,0,0,0,0,0,0,0,0,0,0,0,0,0,0],"id":24,"left_children":[1,3,5,7,9,11,13,15,17,19,21,23,25,27,29,-1,-1,-1,-1,-1,-1,-1,-1,-1,-1,-1,-1,-1,-1,-1,-1],"loss_changes":[9.2803345E2,1.688288E2,3.2086243E2,3.4780396E1,2.6410141E1,2.9814562E1,6.7141846E1,8.688721E0,5.3640137E0,1.3919525E1,1.1619858E1,8.471156E0,1.7781937E1,9.291168E0,2.4074219E1,0E0,0E0,0E0,0E0,0E0,0E0,0E0,0E0,0E0,0E0,0E0,0E0,0E0,0E0,0E0,0E0],"parents":[2147483647,0,0,1,1,2,2,3,3,4,4,5,5,6,6,7,7,8,8,9,9,10,10,11,11,12,12,13,13,14,14],"right_children":[2,4,6,8,10,12,14,16,18,20,22,24,26,28,30,-1,-1,-1,-1,-1,-1,-1,-1,-1,-1,-1,-1,-1,-1,-1,-1],"split_conditions":[-4.011423E1,-2.1776735E2,1.2339306E2,-3.4870966E2,-1.4482927E2,-7.084589E1,2.4198659E2,-1.5005542E2,-1.0703668E2,-3.8667075E2,2.648975E1,6.9438385E1,8.9571495E1,-7.6785194E1,3.844715E2,-3.5767727E-2,-1.16766505E-2,-2.0921431E-2,-1.2154611E-2,-3.1189678E-2,-1.1810652E-2,-7.245709E-3,-5.829053E-4,-6.5568076E-3,5.5869534E-3,2.2540698E-3,7.830737E-3,-1.5511244E-3,1.3720396E-2,2.1892488E-2,3.5801545E-2],"split_indices":[0,0,0,0,1,1,0,1,1,1,1,0,0,1,0,0,0,0,0,0,0,0,0,0,0,0,0,0,0,0,0],"split_type":[0,0,0,0,0,0,0,0,0,0,0,0,0,0,0,0,0,0,0,0,0,0,0,0,0,0,0,0,0,0,0],"sum_hessian":[2.6889787E4,1.0603358E4,1.6286429E4,2.3254846E3,8.277874E3,1.064644E4,5.6399883E3,5.8119653E2,1.7442881E3,2.4400505E3,5.837823E3,1.2423287E3,9.404111E3,3.8189395E3,1.8210487E3,5.396726E2,4.152389E1,1.5419818E3,2.0230624E2,9.5930756E1,2.3441199E3,5.086647E3,7.511763E2,1.0774407E3,1.648881E2,7.646518E3,1.7575935E3,1.0214074E2,3.7167988E3,1.4183145E3,4.0273428E2],"tree_param":{"num_deleted":"0","num_feature":"3","num_nodes":"31","size_leaf_vector":"1"}},{"base_weights":[8.6549274E-4,-1.4137755E-1,2.2899364E-1,-3.294205E-1,-5.9416965E-2,1.7613737E-1,4.7935483E-1,-5.011385E-1,-2.6151738E-1,-1.3243623E-1,-9.723326E-3,1.2296143E-1,2.56801E-1,4.1318896E-1,7.113399E-1,-3.7396077E-2,-2.2556512E-2,-1.5893228E-2,-1.1253185E-2,-8.135623E-3,-4.542906E-3,-8.601364E-3,-2.1576686E-4,4.8014633E-3,9.038518E-3,4.4647706E-4,1.32094445E-2,2.3336848E-2,1.6758205E-2,3.2841057E-2,4.693927E-2],"categories":[],"categories_nodes":[],"categories_segments":[],"categories_sizes":[],"default_left":[0,0,0,0,0,0,0,0,0,0,0,0,0,0,0,0,0,0,0,0,0,0,0,0,0,0,0,0,0,0,0],"id":25,"left_children":[1,3,5,7,9,11,13,15,17,19,21,23,25,27,29,-1,-1,-1,-1,-1,-1,-1,-1,-1,-1,-1,-1,-1,-1,-1,-1],"loss_changes":[8.7092926E2,2.5476718E2,1.3632062E2,5.8379883E1,4.178046E1,3.6481903E1,2.7277649E1,1.7198181E1,7.319214E0,5.8549423E0,6.0141635E0,7.9732895E0,6.1894684E0,5.6929626E0,4.309204E0,0E0,0E0,0E0,0E0,0E0,0E0,0E0,0E0,0E0,0E0,0E0,0E0,0E0,0E0,0E0,0E0],"parents":[2147483647,0,0,1,1,2,2,3,3,4,4,5,5,6,6,7,7,8,8,9,9,10,10,11,11,12,12,13,13,14,14],"right_children":[2,4,6,8,10,12,14,16,18,20,22,24,26,28,30,-1,-1,-1,-1,-1,-1,-1,-1,-1,-1,-1,-1,-1,-1,-1,-1],"split_conditions":[4.449253E1,-1.3665028E2,2.4198659E2,-2.6539706E2,-5.3218384E1,1.3235965E2,3.844715E2,-4.3629315E2,-1.9869157E2,-8.47034E1,-3.7777779E-1,2E-1,-2.25E-1,2.6666668E-1,5.406862E2,-3.7396077E-2,-2.2556512E-2,-1.5893228E-2,-1.1253185E-2,-8.135623E-3,-4.542906E-3,-8.601364E-3,-2.1576686E-4,4.8014633E-3,9.038518E-3,4.4647706E-4,1.32094445E-2,2.3336848E-2,1.6758205E-2,3.2841057E-2,4.693927E-2],"split_indices":[0,0,0,0,0,0,0,0,0,0,2,2,2,2,0,0,0,0,0,0,0,0,0,0,0,0,0,0,0,0,0],"split_type":[0,0,0,0,0,0,0,0,0,0,0,0,0,0,0,0,0,0,0,0,0,0,0,0,0,0,0,0,0,0,0],"sum_hessian":[2.6837412E4,1.6530594E4,1.0306818E4,5.017008E3,1.1513586E4,8.511561E3,1.7952574E3,1.4198967E3,3.5971108E3,4.6618506E3,6.8517354E3,5.1313447E3,3.3802158E3,1.3990166E3,3.962409E2,2.3689607E2,1.1830007E3,1.4099705E3,2.1871404E3,2.695868E3,1.9659828E3,2.1994551E2,6.6317896E3,3.5023313E3,1.6290135E3,9.789618E1,3.2823196E3,8.2668536E2,5.723312E2,3.2276242E2,7.347847E1],"tree_param":{"num_deleted":"0","num_feature":"3","num_nodes":"31","size_leaf_vector":"1"}},{"base_weights":[-3.4335647E-3,-1.07039414E-1,2.2607043E-1,-3.0386665E-1,-3.5390183E-2,1.6659114E-1,3.7974975E-1,-4.1234004E-1,-2.2133861E-1,-9.760759E-2,3.4081535E-3,1.3852993E-1,2.2578372E-1,3.2770854E-1,5.3395635E-1,-2.8289383E-2,-1.9167246E-2,-1.774032E-2,-1.0214089E-2,-7.633465E-3,-3.6518816E-3,-9.5483195E-4,3.7786204E-3,5.4447716E-3,9.94837E-3,-1.6763752E-2,1.1462942E-2,9.090369E-3,1.7894432E-2,2.457202E-2,4.0499575E-2],"categories":[],"categories_nodes":[],"categories_segments":[],"categories_sizes":[],"default_left":[0,0,0,0,0,0,0,0,0,0,0,0,0,0,0,0,0,0,0,0,0,0,0,0,0,0,0,0,0,0,0],"id":26,"left_children":[1,3,5,7,9,11,13,15,17,19,21,23,25,27,29,-1,-1,-1,-1,-1,-1,-1,-1,-1,-1,-1,-1,-1,-1,-1,-1],"loss_changes":[6.350065E2,2.594685E2,7.586127E1,4.3865387E1,3.256498E1,9.918533E0,1.8418823E1,9.217468E0,6.2807617E0,6.998596E0,1.3497032E1,7.261261E0,3.8299103E0,7.5743103E0,6.444351E0,0E0,0E0,0E0,0E0,0E0,0E0,0E0,0E0,0E0,0E0,0E0,0E0,0E0,0E0,0E0,0E0],"parents":[2147483647,0,0,1,1,2,2,3,3,4,4,5,5,6,6,7,7,8,8,9,9,10,10,11,11,12,12,13,13,14,14],"right_children":[2,4,6,8,10,12,14,16,18,20,22,24,26,28,30,-1,-1,-1,-1,-1,-1,-1,-1,-1,-1,-1,-1,-1,-1,-1,-1],"split_conditions":[7.5303894E1,-1.4482927E2,2.2924084E2,-2.3867758E2,-4.53046E1,1.6162555E2,3.671222E2,-4.3075E2,-3E-1,-1.6666667E-1,1.5555556E-1,2E-1,-4.1428572E-1,0E0,5.556856E2,-2.8289383E-2,-1.9167246E-2,-1.774032E-2,-1.0214089E-2,-7.633465E-3,-3.6518816E-3,-9.5483195E-4,3.7786204E-3,5.4447716E-3,9.94837E-3,-1.6763752E-2,1.1462942E-2,9.090369E-3,1.7894432E-2,2.457202E-2,4.0499575E-2],"split_indices":[1,1,1,1,1,1,1,1,2,2,2,2,2,2,1,0,0,0,0,0,0,0,0,0,0,0,0,0,0,0,0],"split_type":[0,0,0,0,0,0,0,0,0,0,0,0,0,0,0,0,0,0,0,0,0,0,0,0,0,0,0,0,0,0,0],"sum_hessian":[2.6703662E4,1.8398494E4,8.305168E3,4.9092036E3,1.3489291E4,5.989215E3,2.3159526E3,2.1194458E3,2.7897576E3,5.1804126E3,8.308878E3,4.0653232E3,1.9238918E3,1.7339194E3,5.820331E2,3.3389572E2,1.7855502E3,3.1388004E2,2.4758777E3,1.5967822E3,3.5836301E3,6.3342466E3,1.9746318E3,2.7296746E3,1.3356487E3,1.1255209E1,1.9126366E3,2.9839548E2,1.435524E3,5.0676038E2,7.5272705E1],"tree_param":{"num_deleted":"0","num_feature":"3","num_nodes":"31","size_leaf_vector":"1"}},{"base_weights":[3.9187274E-3,-1.7143153E-1,1.2805772E-1,-3.6062258E-1,-1.2109548E-1,6.3462466E-2,3.2078278E-1,-4.556712E-1,-3.033203E-1,-1.6759144E-1,-6.715337E-2,3.6063835E-2,1.369578E-1,2.743807E-1,5.392027E-1,-2.9598514E-2,-2.1123668E-2,-1.782237E-2,-9.515739E-3,-1.576909E-2,-7.6521086E-3,-1.0155899E-2,-2.9802404E-3,-2.7163762E-3,2.8961988E-3,4.325244E-3,8.9320345E-3,1.0466675E-2,1.5437545E-2,2.512889E-2,4.191479E-2],"categories":[],"categories_nodes":[],"categories_segments":[],"categories_sizes":[],"default_left":[0,0,0,0,0,0,0,0,0,0,0,0,0,0,0,0,0,0,0,0,0,0,0,0,0,0,0,0,0,0,0],"id":27,"left_children":[1,3,5,7,9,11,13,15,17,19,21,23,25,27,29,-1,-1,-1,-1,-1,-1,-1,-1,-1,-1,-1,-1,-1,-1,-1,-1],"loss_changes":[5.8073083E2,1.0526578E2,1.9443668E2,1.2515991E1,2.1899231E1,2.3555523E1,3.959082E1,3.694992E0,8.65242E0,1.0038757E1,4.1402473E0,1.6846903E1,6.6657524E0,7.169815E0,7.093094E0,0E0,0E0,0E0,0E0,0E0,0E0,0E0,0E0,0E0,0E0,0E0,0E0,0E0,0E0,0E0,0E0],"parents":[2147483647,0,0,1,1,2,2,3,3,4,4,5,5,6,6,7,7,8,8,9,9,10,10,11,11,12,12,13,13,14,14],"right_children":[2,4,6,8,10,12,14,16,18,20,22,24,26,28,30,-1,-1,-1,-1,-1,-1,-1,-1,-1,-1,-1,-1,-1,-1,-1,-1],"split_conditions":[-2.9149935E1,-2.2895016E2,1.7016441E2,-3.3211234E2,-9.864443E1,9.670569E1,3.5373953E2,-4.9957596E2,-3.3333335E-2,-3.7777779E-1,-3.7777779E-1,-1E-1,1E-1,2.073898E2,5.556856E2,-2.9598514E-2,-2.1123668E-2,-1.782237E-2,-9.515739E-3,-1.576909E-2,-7.6521086E-3,-1.0155899E-2,-2.9802404E-3,-2.7163762E-3,2.8961988E-3,4.325244E-3,8.9320345E-3,1.0466675E-2,1.5437545E-2,2.512889E-2,4.191479E-2],"split_indices":[1,1,1,1,1,1,1,1,2,2,2,2,2,1,1,0,0,0,0,0,0,0,0,0,0,0,0,0,0,0,0],"split_type":[0,0,0,0,0,0,0,0,0,0,0,0,0,0,0,0,0,0,0,0,0,0,0,0,0,0,0,0,0,0,0],"sum_hessian":[2.6676422E4,1.1057281E4,1.561914E4,2.3223655E3,8.734916E3,1.1699254E4,3.9198857E3,8.7087445E2,1.4514911E3,4.6901157E3,4.0448E3,8.523307E3,3.175948E3,3.234905E3,6.849806E2,1.6727362E2,7.036008E2,9.858574E2,4.6563367E2,4.1848636E2,4.2716294E3,2.1138722E2,3.8334128E3,1.659561E3,6.863745E3,1.4382126E3,1.7377352E3,1.1208093E3,2.1140957E3,6.1264105E2,7.233954E1],"tree_param":{"num_deleted":"0","num_feature":"3","num_nodes":"31","size_leaf_vector":"1"}},{"base_weights":[4.434247E-3,-1.5327267E-1,1.3211372E-1,-3.867558E-1,-1.0899622E-1,6.833766E-2,2.912491E-1,-4.792125E-1,-3.357656E-1,-2.0078166E-1,-7.060127E-2,2.9619014E-2,1.1252895E-1,2.4788372E-1,4.6150115E-1,-3.4358196E-2,-2.2547288E-2,-1.9252213E-2,-1.1386233E-2,-1.7259696E-2,-9.151995E-3,-7.829592E-3,-2.8248727E-3,-8.78587E-4,4.2977524E-3,4.0507945E-3,9.63589E-3,1.1058817E-2,1.6078046E-2,2.1447826E-2,4.011061E-2],"categories":[],"categories_nodes":[],"categories_segments":[],"categories_sizes":[],"default_left":[0,0,0,0,0,0,0,0,0,0,0,0,0,0,0,0,0,0,0,0,0,0,0,0,0,0,0,0,0,0,0],"id":28,"left_children":[1,3,5,7,9,11,13,15,17,19,21,23,25,27,29,-1,-1,-1,-1,-1,-1,-1,-1,-1,-1,-1,-1,-1,-1,-1,-1],"loss_changes":[5.359E2,1.2304947E2,1.4924347E2,8.785339E0,3.5263084E1,1.79636E1,3.0949646E1,3.641388E0,6.4420166E0,7.499855E0,8.552807E0,1.4884695E1,1.2375313E1,6.531601E0,9.113998E0,0E0,0E0,0E0,0E0,0E0,0E0,0E0,0E0,0E0,0E0,0E0,0E0,0E0,0E0,0E0,0E0],"parents":[2147483647,0,0,1,1,2,2,3,3,4,4,5,5,6,6,7,7,8,8,9,9,10,10,11,11,12,12,13,13,14,14],"right_children":[2,4,6,8,10,12,14,16,18,20,22,24,26,28,30,-1,-1,-1,-1,-1,-1,-1,-1,-1,-1,-1,-1,-1,-1,-1,-1],"split_conditions":[-1.5511751E1,-2.4916284E2,1.6162555E2,-3.5619885E2,-1.4482927E2,1E-1,3.302703E2,-5.6831805E2,-3.3333335E-2,-3.7777779E-1,-2.25E-1,5.498745E1,1.0322083E2,3E-1,5.556856E2,-3.4358196E-2,-2.2547288E-2,-1.9252213E-2,-1.1386233E-2,-1.7259696E-2,-9.151995E-3,-7.829592E-3,-2.8248727E-3,-8.78587E-4,4.2977524E-3,4.0507945E-3,9.63589E-3,1.1058817E-2,1.6078046E-2,2.1447826E-2,4.011061E-2],"split_indices":[1,1,1,1,1,2,1,1,2,2,2,1,1,2,1,0,0,0,0,0,0,0,0,0,0,0,0,0,0,0,0],"split_type":[0,0,0,0,0,0,0,0,0,0,0,0,0,0,0,0,0,0,0,0,0,0,0,0,0,0,0,0,0,0,0],"sum_hessian":[2.6612102E4,1.1905941E4,1.4706161E4,1.8966415E3,1.00093E4,1.0499676E4,4.206485E3,6.7120245E2,1.225439E3,2.9508606E3,7.0584395E3,5.597255E3,4.9024214E3,3.3545056E3,8.519793E2,7.7529205E1,5.936733E2,8.3982275E2,3.8561627E2,3.208431E2,2.6300176E3,9.931471E2,6.065292E3,3.046225E3,2.5510295E3,3.520806E3,1.3816156E3,2.4649744E3,8.8953125E2,7.7975616E2,7.2223145E1],"tree_param":{"num_deleted":"0","num_feature":"3","num_nodes":"31","size_leaf_vector":"1"}},{"base_weights":[-3.218026E-3,-1.23059824E-1,1.8968074E-1,-2.8932494E-1,-5.2601445E-2,1.22477844E-1,3.647459E-1,-4.4072446E-1,-2.3082118E-1,-1.2166955E-1,-1.2826759E-2,8.247342E-2,1.7414144E-1,3.1557682E-1,5.6987417E-1,-3.6671907E-2,-2.022821E-2,-1.8013675E-2,-1.091586E-2,-2.1919638E-2,-5.733298E-3,-3.3804195E-3,3.990686E-4,3.9068325E-3,2.179605E-2,8.184188E-3,1.732118E-2,1.281775E-2,1.7891413E-2,2.6550729E-2,4.6237633E-2],"categories":[],"categories_nodes":[],"categories_segments":[],"categories_sizes":[],"default_left":[0,0,0,0,0,0,0,0,0,0,0,0,0,0,0,0,0,0,0,0,0,0,0,0,0,0,0,0,0,0,0],"id":29,"left_children":[1,3,5,7,9,11,13,15,17,19,21,23,25,27,29,-1,-1,-1,-1,-1,-1,-1,-1,-1,-1,-1,-1,-1,-1,-1,-1],"loss_changes":[6.142431E2,1.9197592E2,1.1974368E2,4.31026E1,3.1623947E1,1.5195038E1,2.8301422E1,1.4081543E1,5.619568E0,9.281181E0,8.329016E0,6.3262196E0,5.7277603E0,5.613495E0,7.021393E0,0E0,0E0,0E0,0E0,0E0,0E0,0E0,0E0,0E0,0E0,0E0,0E0,0E0,0E0,0E0,0E0],"parents":[2147483647,0,0,1,1,2,2,3,3,4,4,5,5,6,6,7,7,8,8,9,9,10,10,11,11,12,12,13,13,14,14],"right_children":[2,4,6,8,10,12,14,16,18,20,22,24,26,28,30,-1,-1,-1,-1,-1,-1,-1,-1,-1,-1,-1,-1,-1,-1,-1,-1],"split_conditions":[4.449253E1,-1.3665028E2,1.9474603E2,-2.6539706E2,-5.9933186E1,1.1307093E2,3.498933E2,-4.771076E2,-2.874318E2,-3.0344095E2,-4.7044758E1,3.411155E2,2.7234915E2,2.0330846E2,5.556856E2,-3.6671907E-2,-2.022821E-2,-1.8013675E-2,-1.091586E-2,-2.1919638E-2,-5.733298E-3,-3.3804195E-3,3.990686E-4,3.9068325E-3,2.179605E-2,8.184188E-3,1.732118E-2,1.281775E-2,1.7891413E-2,2.6550729E-2,4.6237633E-2],"split_indices":[0,0,0,0,0,0,0,0,1,1,1,1,1,1,1,0,0,0,0,0,0,0,0,0,0,0,0,0,0,0,0],"split_type":[0,0,0,0,0,0,0,0,0,0,0,0,0,0,0,0,0,0,0,0,0,0,0,0,0,0,0,0,0,0,0],"sum_hessian":[2.656866E4,1.6387807E4,1.01808545E4,4.8767417E3,1.1511064E4,7.358009E3,2.8228462E3,1.3574137E3,3.519328E3,4.205764E3,7.3053003E3,4.148397E3,3.2096118E3,2.2790886E3,5.437574E2,1.471297E2,1.210284E3,3.075444E2,3.2117837E3,8.965606E1,4.116108E3,2.0103629E3,5.2949375E3,4.09932E3,4.9077206E1,3.0277734E3,1.8183844E2,9.5190936E2,1.3271793E3,4.923417E2,5.141565E1],"tree_param":{"num_deleted":"0","num_feature":"3","num_nodes":"31","size_leaf_vector":"1"}},{"base_weights":[-3.423276E-3,-1.18378766E-1,1.8137655E-1,-3.679697E-1,-7.3031396E-2,1.1574753E-1,3.4444335E-1,-5.5216867E-1,-3.1675214E-1,-1.6010651E-1,-2.7781926E-2,-6.9296667E-3,1.3183331E-1,3.0385807E-1,6.2142926E-1,-4.0839247E-2,-2.5605878E-2,-1.8495927E-2,-1.3579043E-2,-9.509048E-3,-7.203304E-3,-3.3487787E-3,-4.3638098E-5,-2.268078E-2,5.3207384E-4,5.204897E-3,8.983384E-3,-6.784652E-2,1.5306035E-2,3.2648213E-2,1.3844735E-2],"categories":[],"categories_nodes":[],"categories_segments":[],"categories_sizes":[],"default_left":[0,0,0,0,0,0,0,0,0,0,0,0,0,0,0,0,0,0,0,0,0,0,0,0,0,0,0,0,0,0,0],"id":30,"left_children":[1,3,5,7,9,11,13,15,17,19,21,23,25,27,29,-1,-1,-1,-1,-1,-1,-1,-1,-1,-1,-1,-1,-1,-1,-1,-1],"loss_changes":[5.6314905E2,1.8494557E2,1.0875708E2,2.3528503E1,5.449231E1,1.4308243E1,3.260135E1,5.3606415E0,4.626404E0,2.254158E0,9.600361E0,6.608937E0,8.485252E0,9.982819E0,3.858963E0,0E0,0E0,0E0,0E0,0E0,0E0,0E0,0E0,0E0,0E0,0E0,0E0,0E0,0E0,0E0,0E0],"parents":[2147483647,0,0,1,1,2,2,3,3,4,4,5,5,6,6,7,7,8,8,9,9,10,10,11,11,12,12,13,13,14,14],"right_children":[2,4,6,8,10,12,14,16,18,20,22,24,26,28,30,-1,-1,-1,-1,-1,-1,-1,-1,-1,-1,-1,-1,-1,-1,-1,-1],"split_conditions":[4.449253E1,-2.0594276E2,1.9126907E2,-3.4870966E2,-9.0231155E1,-1.6666667E-1,3.844715E2,-5.4609845E2,-2.5909467E2,-1.5389432E2,-3.2119335E1,-4.1428572E-1,1.2339306E2,-4.1428572E-1,6E-1,-4.0839247E-2,-2.5605878E-2,-1.8495927E-2,-1.3579043E-2,-9.509048E-3,-7.203304E-3,-3.3487787E-3,-4.3638098E-5,-2.268078E-2,5.3207384E-4,5.204897E-3,8.983384E-3,-6.784652E-2,1.5306035E-2,3.2648213E-2,1.3844735E-2],"split_indices":[0,0,0,0,0,2,0,0,0,0,0,2,0,2,2,0,0,0,0,0,0,0,0,0,0,0,0,0,0,0,0],"split_type":[0,0,0,0,0,0,0,0,0,0,0,0,0,0,0,0,0,0,0,0,0,0,0,0,0,0,0,0,0,0,0],"sum_hessian":[2.6506914E4,1.6341794E4,1.016512E4,2.5114905E3,1.3830304E4,7.2492466E3,2.9158735E3,5.442753E2,1.9672151E3,4.728517E3,9.101786E3,8.404185E2,6.408828E3,2.545057E3,3.708166E2,6.900022E1,4.752751E2,9.003356E2,1.0668795E3,1.640974E3,3.0875432E3,3.7045535E3,5.397233E3,3.0868824E1,8.095497E2,4.0586902E3,2.350138E3,2.648048E0,2.542409E3,3.3890192E2,3.1914663E1],"tree_param":{"num_deleted":"0","num_feature":"3","num_nodes":"31","size_leaf_vector":"1"}},{"base_weights":[-2.2774183E-3,-9.008814E-2,2.1618883E-1,-2.578682E-1,-3.1661484E-2,1.5194772E-1,3.7456602E-1,-5.754954E-1,-2.2531982E-1,-1.237819E-1,-8.755184E-3,1.4182833E-1,2.929812E-1,3.1481564E-1,5.633042E-1,-3.0408347E-2,-9.702438E-3,-1.5145945E-2,-9.347032E-3,-6.453289E-3,9.459908E-3,-1.186058E-2,-1.6677602E-4,-1.5532206E-2,7.2476426E-3,1.7001735E-2,3.108729E-3,1.1803808E-2,1.7752217E-2,2.507105E-2,3.677172E-2],"categories":[],"categories_nodes":[],"categories_segments":[],"categories_sizes":[],"default_left":[0,0,0,0,0,0,0,0,0,0,0,0,0,0,0,0,0,0,0,0,0,0,0,0,0,0,0,0,0,0,0],"id":31,"left_children":[1,3,5,7,9,11,13,15,17,19,21,23,25,27,29,-1,-1,-1,-1,-1,-1,-1,-1,-1,-1,-1,-1,-1,-1,-1,-1],"loss_changes":[5.070598E2,1.8481154E2,7.704523E1,5.0213074E1,2.950951E1,7.6551514E0,2.4476074E1,5.5147095E0,1.3102768E1,4.6299744E0,1.3868101E1,7.1617203E0,3.889759E0,5.1830597E0,5.217148E0,0E0,0E0,0E0,0E0,0E0,0E0,0E0,0E0,0E0,0E0,0E0,0E0,0E0,0E0,0E0,0E0],"parents":[2147483647,0,0,1,1,2,2,3,3,4,4,5,5,6,6,7,7,8,8,9,9,10,10,11,11,12,12,13,13,14,14],"right_children":[2,4,6,8,10,12,14,16,18,20,22,24,26,28,30,-1,-1,-1,-1,-1,-1,-1,-1,-1,-1,-1,-1,-1,-1,-1,-1],"split_conditions":[8.372044E1,-1.3665028E2,2.1844243E2,-3.6386313E2,-8.299138E1,2.601497E2,3.498933E2,-1.5267416E2,-2.3196169E2,1.826197E2,-2.337373E2,-2.3867758E2,2.0214299E2,1.9957092E2,4.7465213E2,-3.0408347E-2,-9.702438E-3,-1.5145945E-2,-9.347032E-3,-6.453289E-3,9.459908E-3,-1.186058E-2,-1.6677602E-4,-1.5532206E-2,7.2476426E-3,1.7001735E-2,3.108729E-3,1.1803808E-2,1.7752217E-2,2.507105E-2,3.677172E-2],"split_indices":[0,0,0,0,0,1,0,1,0,1,1,1,0,1,0,0,0,0,0,0,0,0,0,0,0,0,0,0,0,0,0],"split_type":[0,0,0,0,0,0,0,0,0,0,0,0,0,0,0,0,0,0,0,0,0,0,0,0,0,0,0,0,0,0,0],"sum_hessian":[2.6429818E4,1.8852713E4,7.5771055E3,4.868562E3,1.3984151E4,5.391969E3,2.1851365E3,4.509763E2,4.417586E3,2.7839124E3,1.1200239E4,5.032858E3,3.5911093E2,1.6617356E3,5.2340094E2,4.1484943E2,3.6126858E1,1.4595734E3,2.9580125E3,2.738271E3,4.564124E1,2.585546E2,1.0941685E4,3.3840874E1,4.999017E3,2.9790512E2,6.12058E1,5.642329E2,1.0975027E3,3.8786942E2,1.3553154E2],"tree_param":{"num_deleted":"0","num_feature":"3","num_nodes":"31","size_leaf_vector":"1"}},{"base_weights":[1.6150535E-3,-1.4450389E-1,1.2879077E-1,-3.5095188E-1,-9.9642366E-2,7.215356E-2,2.847162E-1,-5.293642E-1,-3.0522794E-1,-1.6368656E-1,-6.5225564E-2,4.0921535E-2,1.265682E-1,2.4029855E-1,5.660107E-1,-3.8223095E-2,-2.4248242E-2,-1.4523904E-2,-2.0882148E-2,-1.8811205E-2,-7.8049726E-3,3.6647677E-2,-3.2937787E-3,-7.0017106E-3,2.2766562E-3,2.0552379E-4,7.07322E-3,-3.2771368E-2,1.2299283E-2,2.6327094E-2,4.2374197E-2],"categories":[],"categories_nodes":[],"categories_segments":[],"categories_sizes":[],"default_left":[0,0,0,0,0,0,0,0,0,0,0,0,0,0,0,0,0,0,0,0,0,0,0,0,0,0,0,0,0,0,0],"id":32,"left_children":[1,3,5,7,9,11,13,15,17,19,21,23,25,27,29,-1,-1,-1,-1,-1,-1,-1,-1,-1,-1,-1,-1,-1,-1,-1,-1],"loss_changes":[4.8921747E2,1.134267E2,1.2428346E2,1.7675354E1,2.2175217E1,1.754448E1,4.671933E1,4.270996E0,2.7684631E0,5.613617E0,3.4458942E0,5.4825706E0,6.8677177E0,1.6668243E1,5.226959E0,0E0,0E0,0E0,0E0,0E0,0E0,0E0,0E0,0E0,0E0,0E0,0E0,0E0,0E0,0E0,0E0],"parents":[2147483647,0,0,1,1,2,2,3,3,4,4,5,5,6,6,7,7,8,8,9,9,10,10,11,11,12,12,13,13,14,14],"right_children":[2,4,6,8,10,12,14,16,18,20,22,24,26,28,30,-1,-1,-1,-1,-1,-1,-1,-1,-1,-1,-1,-1,-1,-1,-1,-1],"split_conditions":[-1.3422308E1,-2.1776735E2,1.6291946E2,-3.6386313E2,-1.1867777E2,8.372044E1,3.498933E2,-5.4609845E2,4.4444446E-2,-4.1428572E-1,-6E-1,-3.7777779E-1,-1.6666667E-1,-3.7777779E-1,5.406862E2,-3.8223095E-2,-2.4248242E-2,-1.4523904E-2,-2.0882148E-2,-1.8811205E-2,-7.8049726E-3,3.6647677E-2,-3.2937787E-3,-7.0017106E-3,2.2766562E-3,2.0552379E-4,7.07322E-3,-3.2771368E-2,1.2299283E-2,2.6327094E-2,4.2374197E-2],"split_indices":[0,0,0,0,0,0,0,0,2,2,2,2,2,2,0,0,0,0,0,0,0,0,0,0,0,0,0,0,0,0,0],"split_type":[0,0,0,0,0,0,0,0,0,0,0,0,0,0,0,0,0,0,0,0,0,0,0,0,0,0,0,0,0,0,0],"sum_hessian":[2.6324385E4,1.2249801E4,1.4074584E4,2.1855068E3,1.0064294E4,1.0325491E4,3.7490933E3,4.4368704E2,1.7418197E3,3.516637E3,6.5476567E3,6.5612974E3,3.7641936E3,3.2394275E3,5.0966553E2,6.790542E1,3.7578162E2,1.5429543E3,1.9886542E2,1.19534355E2,3.3971028E3,4.4111395E0,6.5432456E3,1.6232693E2,6.3989707E3,4.0836966E2,3.3558237E3,1.9717077E1,3.2197104E3,4.495055E2,6.0160038E1],"tree_param":{"num_deleted":"0","num_feature":"3","num_nodes":"31","size_leaf_vector":"1"}},{"base_weights":[1.444221E-4,-9.553479E-2,1.4149435E-1,-2.1097961E-1,-3.7224714E-2,9.933819E-2,3.0305186E-1,-3.7467733E-1,-1.7705846E-1,-1.11371815E-1,-1.15743475E-2,6.349328E-2,1.3949507E-1,2.7780524E-1,5.3195465E-1,-3.123827E-2,-1.763755E-2,-1.4136751E-2,-8.160344E-3,-5.4170555E-3,-2.4213955E-2,-3.7292473E-3,2.7961223E-4,2.6999519E-3,1.0974863E-2,-1.231915E-2,7.110817E-3,7.0990357E-3,1.5302404E-2,-1.0192986E-2,2.7711539E-2],"categories":[],"categories_nodes":[],"categories_segments":[],"categories_sizes":[],"default_left":[0,0,0,0,0,0,0,0,0,0,0,0,0,0,0,0,0,0,0,0,0,0,0,0,0,0,0,0,0,0,0],"id":33,"left_children":[1,3,5,7,9,11,13,15,17,19,21,23,25,27,29,-1,-1,-1,-1,-1,-1,-1,-1,-1,-1,-1,-1,-1,-1,-1,-1],"loss_changes":[3.5630725E2,1.05752625E2,7.23994E1,2.9209381E1,1.9854218E1,1.2133362E1,1.2567505E1,4.7371445E0,6.349365E0,2.9799843E0,8.391695E0,6.592373E0,4.2118454E0,7.566437E0,3.6776314E0,0E0,0E0,0E0,0E0,0E0,0E0,0E0,0E0,0E0,0E0,0E0,0E0,0E0,0E0,0E0,0E0],"parents":[2147483647,0,0,1,1,2,2,3,3,4,4,5,5,6,6,7,7,8,8,9,9,10,10,11,11,12,12,13,13,14,14],"right_children":[2,4,6,8,10,12,14,16,18,20,22,24,26,28,30,-1,-1,-1,-1,-1,-1,-1,-1,-1,-1,-1,-1,-1,-1,-1,-1],"split_conditions":[3.3533863E1,-1.3241507E2,2.2924084E2,-3.216411E2,-1.6666667E-1,1.1189844E2,4.5398453E2,-5.6831805E2,-3.7777779E-1,3.182586E1,-8.258538E1,4E-1,-4.1428572E-1,0E0,-2.25E-1,-3.123827E-2,-1.763755E-2,-1.4136751E-2,-8.160344E-3,-5.4170555E-3,-2.4213955E-2,-3.7292473E-3,2.7961223E-4,2.6999519E-3,1.0974863E-2,-1.231915E-2,7.110817E-3,7.0990357E-3,1.5302404E-2,-1.0192986E-2,2.7711539E-2],"split_indices":[1,1,1,1,2,1,1,1,2,1,1,2,2,2,2,0,0,0,0,0,0,0,0,0,0,0,0,0,0,0,0],"split_type":[0,0,0,0,0,0,0,0,0,0,0,0,0,0,0,0,0,0,0,0,0,0,0,0,0,0,0,0,0,0,0],"sum_hessian":[2.6343807E4,1.5710056E4,1.0633751E4,5.271229E3,1.0438826E4,8.434501E3,2.1992495E3,9.030786E2,4.3681504E3,2.6821724E3,7.7566543E3,4.4578813E3,3.97662E3,1.9827749E3,2.1647466E2,7.0578415E1,8.325002E2,5.0395615E2,3.864194E3,2.6618296E3,2.0342821E1,1.6600469E3,6.0966074E3,4.203412E3,2.5446935E2,2.7220215E1,3.9494E3,3.4235583E2,1.6404191E3,6.121473E0,2.1035318E2],"tree_param":{"num_deleted":"0","num_feature":"3","num_nodes":"31","size_leaf_vector":"1"}},{"base_weights":[-2.3734844E-3,-1.0093004E-1,1.6089526E-1,-3.2382694E-1,-6.710394E-2,1.07217364E-1,2.9578057E-1,-5.6405526E-1,-2.8730446E-1,-1.2134281E-1,-6.744066E-3,7.2787784E-2,1.5215723E-1,2.5109822E-1,5.02179E-1,-3.726689E-2,-2.535761E-2,-1.6602691E-2,-1.1666185E-2,-8.158013E-3,-4.9211993E-3,-1.5179268E-3,3.813239E-4,2.0954355E-3,7.1406267E-3,-2.4562746E-2,7.7308486E-3,-7.100778E-2,1.2676187E-2,2.1179674E-2,3.094246E-2],"categories":[],"categories_nodes":[],"categories_segments":[],"categories_sizes":[],"default_left":[0,0,0,0,0,0,0,0,0,0,0,0,0,0,0,0,0,0,0,0,0,0,0,0,0,0,0,0,0,0,0],"id":34,"left_children":[1,3,5,7,9,11,13,15,17,19,21,23,25,27,29,-1,-1,-1,-1,-1,-1,-1,-1,-1,-1,-1,-1,-1,-1,-1,-1],"loss_changes":[4.233821E2,1.2368434E2,7.167801E1,1.8803009E1,4.6640587E1,1.0953346E1,2.5870209E1,2.5538864E0,4.459854E0,7.1755753E0,2.2887955E0,8.674091E0,4.939476E0,9.761337E0,4.3280106E0,0E0,0E0,0E0,0E0,0E0,0E0,0E0,0E0,0E0,0E0,0E0,0E0,0E0,0E0,0E0,0E0],"parents":[2147483647,0,0,1,1,2,2,3,3,4,4,5,5,6,6,7,7,8,8,9,9,10,10,11,11,12,12,13,13,14,14],"right_children":[2,4,6,8,10,12,14,16,18,20,22,24,26,28,30,-1,-1,-1,-1,-1,-1,-1,-1,-1,-1,-1,-1,-1,-1,-1,-1],"split_conditions":[4.5947353E1,-2.1776735E2,1.9126907E2,-4.0731238E2,-4.993229E1,1.1307093E2,3.498933E2,-5.4609845E2,-2.6539706E2,-1.3665028E2,-1.3422308E1,2E-1,-4.1428572E-1,-4.1428572E-1,4.344352E2,-3.726689E-2,-2.535761E-2,-1.6602691E-2,-1.1666185E-2,-8.158013E-3,-4.9211993E-3,-1.5179268E-3,3.813239E-4,2.0954355E-3,7.1406267E-3,-2.4562746E-2,7.7308486E-3,-7.100778E-2,1.2676187E-2,2.1179674E-2,3.094246E-2],"split_indices":[0,0,0,0,0,0,0,0,0,0,0,2,2,2,0,0,0,0,0,0,0,0,0,0,0,0,0,0,0,0,0],"split_type":[0,0,0,0,0,0,0,0,0,0,0,0,0,0,0,0,0,0,0,0,0,0,0,0,0,0,0,0,0,0,0],"sum_hessian":[2.6309389E4,1.6406219E4,9.90317E3,2.1605715E3,1.4245647E4,7.08534E3,2.8178308E3,2.8322195E2,1.8773496E3,7.5027397E3,6.742908E3,4.013281E3,3.0720586E3,2.3181914E3,4.9963922E2,6.4772E1,2.1844997E2,1.023626E3,8.537237E2,2.6540554E3,4.848684E3,2.5505654E3,4.192343E3,2.7862268E3,1.2270543E3,1.094286E1,3.0611157E3,2.51251E0,2.315679E3,3.0131396E2,1.9832526E2],"tree_param":{"num_deleted":"0","num_feature":"3","num_nodes":"31","size_leaf_vector":"1"}},{"base_weights":[6.3254302E-3,-6.899151E-2,1.8317275E-1,-2.3030216E-1,-2.3495985E-2,1.34219E-1,3.311119E-1,-4.7384858E-1,-1.9557256E-1,-8.608459E-2,9.0723E-3,9.178279E-2,1.5844494E-1,2.8399602E-1,5.50232E-1,-3.5349146E-2,-2.2007836E-2,-1.279443E-2,-7.909539E-3,-9.603466E-4,-5.004475E-3,2.739783E-4,5.430494E-3,5.7668453E-3,-1.7790787E-4,-2.3105465E-2,8.015949E-3,1.6475197E-2,1.0735935E-2,2.4455423E-2,4.1289262E-2],"categories":[],"categories_nodes":[],"categories_segments":[],"categories_sizes":[],"default_left":[0,0,0,0,0,0,0,0,0,0,0,0,0,0,0,0,0,0,0,0,0,0,0,0,0,0,0,0,0,0,0],"id":35,"left_children":[1,3,5,7,9,11,13,15,17,19,21,23,25,27,29,-1,-1,-1,-1,-1,-1,-1,-1,-1,-1,-1,-1,-1,-1,-1,-1],"loss_changes":[3.4919913E2,1.3493127E2,5.6665558E1,3.4118896E1,2.9237036E1,6.035866E0,1.9936691E1,3.6483307E0,7.944977E0,4.5959435E0,3.3733685E0,4.808777E0,4.4294434E0,4.985718E0,5.379219E0,0E0,0E0,0E0,0E0,0E0,0E0,0E0,0E0,0E0,0E0,0E0,0E0,0E0,0E0,0E0,0E0],"parents":[2147483647,0,0,1,1,2,2,3,3,4,4,5,5,6,6,7,7,8,8,9,9,10,10,11,11,12,12,13,13,14,14],"right_children":[2,4,6,8,10,12,14,16,18,20,22,24,26,28,30,-1,-1,-1,-1,-1,-1,-1,-1,-1,-1,-1,-1,-1,-1,-1,-1],"split_conditions":[7.819311E1,-1.5389432E2,2.2729027E2,-3.4870966E2,-5.9933186E1,1.17187515E2,3.844715E2,-5.4609845E2,-2.3196169E2,-2E-1,4E-1,1.0898595E2,-4.1428572E-1,2.6666668E-1,5.406862E2,-3.5349146E-2,-2.2007836E-2,-1.279443E-2,-7.909539E-3,-9.603466E-4,-5.004475E-3,2.739783E-4,5.430494E-3,5.7668453E-3,-1.7790787E-4,-2.3105465E-2,8.015949E-3,1.6475197E-2,1.0735935E-2,2.4455423E-2,4.1289262E-2],"split_indices":[0,0,0,0,0,0,0,0,0,2,2,0,2,2,0,0,0,0,0,0,0,0,0,0,0,0,0,0,0,0,0],"split_type":[0,0,0,0,0,0,0,0,0,0,0,0,0,0,0,0,0,0,0,0,0,0,0,0,0,0,0,0,0,0,0],"sum_hessian":[2.621499E4,1.838547E4,7.8295195E3,4.043747E3,1.4341724E4,5.8842886E3,1.945231E3,5.0309262E2,3.5406545E3,4.908019E3,9.433705E3,2.1401711E3,3.7441174E3,1.6028724E3,3.423585E2,6.1001587E1,4.4209103E2,1.3525111E3,2.1881433E3,8.5023987E2,4.057779E3,9.106083E3,3.2762213E2,1.7160171E3,4.2415408E2,1.0533556E1,3.733584E3,9.6512854E2,6.377439E2,2.824746E2,5.9883892E1],"tree_param":{"num_deleted":"0","num_feature":"3","num_nodes":"31","size_leaf_vector":"1"}},{"base_weights":[-7.972758E-4,-8.490458E-2,1.23974964E-1,-2.4662307E-1,-5.3066652E-2,6.983435E-2,2.1154611E-1,-4.0786496E-1,-2.2526513E-1,-8.955468E-2,-1.9813446E-2,5.827359E-2,1.3240437E-1,1.937609E-1,5.3261846E-1,-2.7999131E-2,-1.7974207E-2,-1.2671676E-2,-8.210538E-3,-9.355958E-3,-3.8092916E-3,-2.17232E-3,2.3096306E-3,2.1352302E-3,4.6631815E-3,1.7930852E-3,9.081579E-3,8.734842E-3,1.50000155E-2,2.1690244E-2,3.1728126E-2],"categories":[],"categories_nodes":[],"categories_segments":[],"categories_sizes":[],"default_left":[0,0,0,0,0,0,0,0,0,0,0,0,0,0,0,0,0,0,0,0,0,0,0,0,0,0,0,0,0,0,0],"id":36,"left_children":[1,3,5,7,9,11,13,15,17,19,21,23,25,27,29,-1,-1,-1,-1,-1,-1,-1,-1,-1,-1,-1,-1,-1,-1,-1,-1],"loss_changes":[2.7515732E2,8.062788E1,5.004071E1,8.779266E0,1.5877464E1,4.712637E0,2.2926758E1,2.0070686E0,3.8742218E0,8.1244545E0,1.0684916E1,2.9974957E0,4.8262825E0,7.6903687E0,1.8512802E0,0E0,0E0,0E0,0E0,0E0,0E0,0E0,0E0,0E0,0E0,0E0,0E0,0E0,0E0,0E0,0E0],"parents":[2147483647,0,0,1,1,2,2,3,3,4,4,5,5,6,6,7,7,8,8,9,9,10,10,11,11,12,12,13,13,14,14],"right_children":[2,4,6,8,10,12,14,16,18,20,22,24,26,28,30,-1,-1,-1,-1,-1,-1,-1,-1,-1,-1,-1,-1,-1,-1,-1,-1],"split_conditions":[3.3533863E1,-2.118263E2,1.6162555E2,-4.3075E2,-3.3333335E-2,2.6666668E-1,4.5398453E2,-5.6831805E2,-3.3333335E-2,-3.7777779E-1,0E0,1.1189844E2,7.717562E1,3.302703E2,3E-1,-2.7999131E-2,-1.7974207E-2,-1.2671676E-2,-8.210538E-3,-9.355958E-3,-3.8092916E-3,-2.17232E-3,2.3096306E-3,2.1352302E-3,4.6631815E-3,1.7930852E-3,9.081579E-3,8.734842E-3,1.50000155E-2,2.1690244E-2,3.1728126E-2],"split_indices":[1,1,1,1,2,2,1,1,2,2,1,1,1,1,2,0,0,0,0,0,0,0,0,0,0,0,0,0,0,0,0],"split_type":[0,0,0,0,0,0,0,0,0,0,0,0,0,0,0,0,0,0,0,0,0,0,0,0,0,0,0,0,0,0,0],"sum_hessian":[2.6217797E4,1.56611455E4,1.0556651E4,2.574979E3,1.3086167E4,6.5246206E3,4.0320303E3,2.9906778E2,2.2759111E3,6.2387866E3,6.8473804E3,5.5087305E3,1.0158904E3,3.8219253E3,2.1010497E2,6.9614235E1,2.2945354E2,1.5552305E3,7.2068085E2,7.502856E2,5.488501E3,5.042349E3,1.8050314E3,3.8139258E3,1.6948046E3,3.4365488E2,6.7223553E2,3.2426873E3,5.7923785E2,1.0935924E2,1.0074573E2],"tree_param":{"num_deleted":"0","num_feature":"3","num_nodes":"31","size_leaf_vector":"1"}},{"base_weights":[2.0001868E-3,-6.6411495E-2,1.7339446E-1,-2.8073114E-1,-3.9280992E-2,1.4742173E-1,4.4579574E-1,-4.5840225E-1,-2.374929E-1,-8.9029245E-2,9.530981E-3,1.1153629E-1,2.2601333E-1,3.9186877E-1,6.809346E-1,-3.49033E-2,-2.0793688E-2,-1.4303818E-2,-9.400248E-3,-5.9208013E-3,-2.8315804E-3,-6.6059395E-3,6.8029173E-4,6.5989874E-4,6.143184E-3,1.1974505E-2,2.346117E-3,2.4043346E-2,1.5254172E-2,3.695799E-2,1.3633156E-2],"categories":[],"categories_nodes":[],"categories_segments":[],"categories_sizes":[],"default_left":[0,0,0,0,0,0,0,0,0,0,0,0,0,0,0,0,0,0,0,0,0,0,0,0,0,0,0,0,0,0,0],"id":37,"left_children":[1,3,5,7,9,11,13,15,17,19,21,23,25,27,29,-1,-1,-1,-1,-1,-1,-1,-1,-1,-1,-1,-1,-1,-1,-1,-1],"loss_changes":[3.0663712E2,1.0867027E2,5.2717422E1,1.6024185E1,4.0291492E1,1.9188278E1,7.961731E0,3.8883057E0,4.012108E0,7.8166733E0,4.836289E0,5.210392E0,5.140724E0,3.948578E0,2.6440506E0,0E0,0E0,0E0,0E0,0E0,0E0,0E0,0E0,0E0,0E0,0E0,0E0,0E0,0E0,0E0,0E0],"parents":[2147483647,0,0,1,1,2,2,3,3,4,4,5,5,6,6,7,7,8,8,9,9,10,10,11,11,12,12,13,13,14,14],"right_children":[2,4,6,8,10,12,14,16,18,20,22,24,26,28,30,-1,-1,-1,-1,-1,-1,-1,-1,-1,-1,-1,-1,-1,-1,-1,-1],"split_conditions":[8.372044E1,-2.1776735E2,3.2354733E2,-3.6386313E2,-3.8525112E1,1.9126907E2,4.7465213E2,-5.4609845E2,-2.6539706E2,-1.0192981E2,-3.7777779E-1,-1.6666667E-1,5E-1,2.6666668E-1,6E-1,-3.49033E-2,-2.0793688E-2,-1.4303818E-2,-9.400248E-3,-5.9208013E-3,-2.8315804E-3,-6.6059395E-3,6.8029173E-4,6.5989874E-4,6.143184E-3,1.1974505E-2,2.346117E-3,2.4043346E-2,1.5254172E-2,3.695799E-2,1.3633156E-2],"split_indices":[0,0,0,0,0,0,0,0,0,0,2,2,2,2,2,0,0,0,0,0,0,0,0,0,0,0,0,0,0,0,0],"split_type":[0,0,0,0,0,0,0,0,0,0,0,0,0,0,0,0,0,0,0,0,0,0,0,0,0,0,0,0,0,0,0],"sum_hessian":[2.614961E4,1.8690104E4,7.4595054E3,2.09906E3,1.6591045E4,6.8115806E3,6.479248E2,4.0896646E2,1.6900936E3,8.21631E3,8.374734E3,4.677996E3,2.1335845E3,5.292196E2,1.187052E2,5.9311337E1,3.4965512E2,8.5042816E2,8.396655E2,4.30696E3,3.9093496E3,2.3330151E2,8.141433E3,4.8341495E2,4.194581E3,1.9839529E3,1.4963165E2,2.5903693E2,2.7018265E2,1.0317986E2,1.552534E1],"tree_param":{"num_deleted":"0","num_feature":"3","num_nodes":"31","size_leaf_vector":"1"}},{"base_weights":[-1.2217989E-4,-1.1044746E-1,9.5035605E-2,-3.1702396E-1,-8.648298E-2,3.302688E-2,1.8263158E-1,-6.4484495E-1,-3.0069718E-1,-1.21173136E-1,-4.6743758E-2,2.9493226E-2,4.1375196E-1,1.6347222E-1,5.1197827E-1,-3.367367E-2,-9.738277E-3,-1.5483849E-2,1.8787824E-3,-6.438264E-3,2.470711E-3,-1.6135009E-2,-2.0595957E-3,-7.795659E-3,1.6610802E-3,-3.076866E-2,2.2450197E-2,6.762975E-3,1.1692829E-2,-2.0263731E-2,2.612005E-2],"categories":[],"categories_nodes":[],"categories_segments":[],"categories_sizes":[],"default_left":[0,0,0,0,0,0,0,0,0,0,0,0,0,0,0,0,0,0,0,0,0,0,0,0,0,0,0,0,0,0,0],"id":38,"left_children":[1,3,5,7,9,11,13,15,17,19,21,23,25,27,29,-1,-1,-1,-1,-1,-1,-1,-1,-1,-1,-1,-1,-1,-1,-1,-1],"loss_changes":[2.741384E2,5.9836853E1,7.614687E1,6.5319443E0,1.4933708E1,1.1033385E1,3.6583252E1,6.257324E-1,3.6534271E0,7.4991913E0,7.7275143E0,5.62915E0,3.0126047E0,1.0875763E1,3.2613144E0,0E0,0E0,0E0,0E0,0E0,0E0,0E0,0E0,0E0,0E0,0E0,0E0,0E0,0E0,0E0,0E0],"parents":[2147483647,0,0,1,1,2,2,3,3,4,4,5,5,6,6,7,7,8,8,9,9,10,10,11,11,12,12,13,13,14,14],"right_children":[2,4,6,8,10,12,14,16,18,20,22,24,26,28,30,-1,-1,-1,-1,-1,-1,-1,-1,-1,-1,-1,-1,-1,-1,-1,-1],"split_conditions":[-1.3422308E1,-2.6539706E2,1.1307093E2,-5.4609845E2,-9.0231155E1,3.411155E2,3.844715E2,-3.1230505E2,2.537318E0,5.498745E1,-2.8053644E2,-2.0791675E2,-5.7860856E0,2.2729027E2,-3.796743E1,-3.367367E-2,-9.738277E-3,-1.5483849E-2,1.8787824E-3,-6.438264E-3,2.470711E-3,-1.6135009E-2,-2.0595957E-3,-7.795659E-3,1.6610802E-3,-3.076866E-2,2.2450197E-2,6.762975E-3,1.1692829E-2,-2.0263731E-2,2.612005E-2],"split_indices":[0,0,0,0,0,1,0,1,1,1,1,1,0,0,1,0,0,0,0,0,0,0,0,0,0,0,0,0,0,0,0],"split_type":[0,0,0,0,0,0,0,0,0,0,0,0,0,0,0,0,0,0,0,0,0,0,0,0,0,0,0,0,0,0,0],"sum_hessian":[2.6110627E4,1.2091576E4,1.401905E4,1.2556344E3,1.0835941E4,8.2091875E3,5.809863E3,5.774256E1,1.1978918E3,5.784416E3,5.0515254E3,8.1347627E3,7.442441E1,5.491876E3,3.179871E2,5.382269E1,3.9198737E0,1.1669972E3,3.0894657E1,5.5381797E3,2.4623648E2,9.849847E1,4.9530273E3,1.5955441E2,7.9752085E3,1.9198886E0,7.250452E1,3.9225078E3,1.5693679E3,3.1470401E0,3.1484006E2],"tree_param":{"num_deleted":"0","num_feature":"3","num_nodes":"31","size_leaf_vector":"1"}},{"base_weights":[-5.1135453E-3,-7.6891616E-2,1.2972677E-1,-2.5306422E-1,-4.8463445E-2,9.066618E-2,2.7860022E-1,-4.892609E-1,-2.2362483E-1,-9.079172E-2,-6.81717E-3,-2.2247469E-2,1.0411367E-1,2.3845083E-1,4.774487E-1,-3.293564E-2,-2.1772834E-2,-1.07342955E-2,-1.9391328E-2,-6.2179468E-3,-3.7504379E-3,-1.831239E-3,3.8570604E-5,-2.2970196E-3,2.48978E-2,3.8393375E-3,6.278342E-3,1.40206395E-2,8.709497E-3,2.5540957E-2,7.3452997E-3],"categories":[],"categories_nodes":[],"categories_segments":[],"categories_sizes":[],"default_left":[0,0,0,0,0,0,0,0,0,0,0,0,0,0,0,0,0,0,0,0,0,0,0,0,0,0,0,0,0,0,0],"id":39,"left_children":[1,3,5,7,9,11,13,15,17,19,21,23,25,27,29,-1,-1,-1,-1,-1,-1,-1,-1,-1,-1,-1,-1,-1,-1,-1,-1],"loss_changes":[2.521423E2,8.513508E1,5.2602356E1,1.6314789E1,2.5807621E1,1.08902855E1,1.4899597E1,2.092125E0,3.0021515E0,3.837288E0,1.6695263E0,9.438465E0,3.7468796E0,4.1755524E0,3.3985672E0,0E0,0E0,0E0,0E0,0E0,0E0,0E0,0E0,0E0,0E0,0E0,0E0,0E0,0E0,0E0,0E0],"parents":[2147483647,0,0,1,1,2,2,3,3,4,4,5,5,6,6,7,7,8,8,9,9,10,10,11,11,12,12,13,13,14,14],"right_children":[2,4,6,8,10,12,14,16,18,20,22,24,26,28,30,-1,-1,-1,-1,-1,-1,-1,-1,-1,-1,-1,-1,-1,-1,-1,-1],"split_conditions":[5.7396973E1,-2.0594276E2,2.2729027E2,-4.0731238E2,-4.8346573E1,-1.6666667E-1,3.844715E2,-5.4609845E2,1.5555556E-1,-1.3665028E2,-1E-1,2.0611166E2,1.1307093E2,2.6666668E-1,6E-1,-3.293564E-2,-2.1772834E-2,-1.07342955E-2,-1.9391328E-2,-6.2179468E-3,-3.7504379E-3,-1.831239E-3,3.8570604E-5,-2.2970196E-3,2.48978E-2,3.8393375E-3,6.278342E-3,1.40206395E-2,8.709497E-3,2.5540957E-2,7.3452997E-3],"split_indices":[0,0,0,0,0,2,0,0,2,0,2,0,0,2,2,0,0,0,0,0,0,0,0,0,0,0,0,0,0,0,0],"split_type":[0,0,0,0,0,0,0,0,0,0,0,0,0,0,0,0,0,0,0,0,0,0,0,0,0,0,0,0,0,0,0],"sum_hessian":[2.6049559E4,1.7000367E4,9.04919E3,2.3610112E3,1.4639356E4,7.1696636E3,1.8795271E3,2.5993045E2,2.1010808E3,7.2596465E3,7.37971E3,7.6293365E2,6.40673E3,1.5656141E3,3.1391306E2,5.993321E1,1.9999724E2,1.9947942E3,1.0628651E2,2.319548E3,4.9400986E3,1.4967433E3,5.882967E3,7.305711E2,3.2362534E1,2.8196519E3,3.587078E3,9.4510376E2,6.205104E2,2.8463217E2,2.9280872E1],"tree_param":{"num_deleted":"0","num_feature":"3","num_nodes":"31","size_leaf_vector":"1"}},{"base_weights":[6.0760276E-4,-7.1506575E-2,1.0204421E-1,-2.4097432E-1,-4.5251183E-2,6.9475815E-2,2.3534144E-1,-2.9488444E-1,-2.0214929E-1,-9.277777E-2,-1.8885383E-2,4.9386334E-2,1.2301546E-1,2.1341501E-1,4.355142E-1,-1.4268774E-2,-4.2527784E-2,-7.898253E-4,-1.0836029E-2,-6.021921E-3,-2.704802E-3,-2.1470985E-3,-3.2159114E-5,-3.921401E-4,2.9931227E-3,-3.3309918E-2,6.231818E-3,6.070807E-3,1.1638548E-2,1.668418E-2,2.7275268E-2],"categories":[],"categories_nodes":[],"categories_segments":[],"categories_sizes":[],"default_left":[0,0,0,0,0,0,0,0,0,0,0,0,0,0,0,0,0,0,0,0,0,0,0,0,0,0,0,0,0,0,0],"id":40,"left_children":[1,3,5,7,9,11,13,15,17,19,21,23,25,27,29,-1,-1,-1,-1,-1,-1,-1,-1,-1,-1,-1,-1,-1,-1,-1,-1],"loss_changes":[1.9041528E2,6.768467E1,4.6940384E1,4.2117233E0,1.6507133E1,9.344971E0,9.226875E0,4.2601624E0,3.2265854E0,5.022995E0,3.7191997E0,3.7916489E0,3.1166496E0,3.3831635E0,2.155178E0,0E0,0E0,0E0,0E0,0E0,0E0,0E0,0E0,0E0,0E0,0E0,0E0,0E0,0E0,0E0,0E0],"parents":[2147483647,0,0,1,1,2,2,3,3,4,4,5,5,6,6,7,7,8,8,9,9,10,10,11,11,12,12,13,13,14,14],"right_children":[2,4,6,8,10,12,14,16,18,20,22,24,26,28,30,-1,-1,-1,-1,-1,-1,-1,-1,-1,-1,-1,-1,-1,-1,-1,-1],"split_conditions":[2.8190123E1,-2.337373E2,2.2924084E2,-3.216411E2,-9.864443E1,1.4770496E2,4.5398453E2,4E-1,-3.1230505E2,-3.3333335E-2,-3.3333335E-2,-1.6666667E-1,-5E-1,0E0,3E-1,-1.4268774E-2,-4.2527784E-2,-7.898253E-4,-1.0836029E-2,-6.021921E-3,-2.704802E-3,-2.1470985E-3,-3.2159114E-5,-3.921401E-4,2.9931227E-3,-3.3309918E-2,6.231818E-3,6.070807E-3,1.1638548E-2,1.668418E-2,2.7275268E-2],"split_indices":[1,1,1,1,1,1,1,2,1,2,2,2,2,2,2,0,0,0,0,0,0,0,0,0,0,0,0,0,0,0,0],"split_type":[0,0,0,0,0,0,0,0,0,0,0,0,0,0,0,0,0,0,0,0,0,0,0,0,0,0,0,0,0,0,0],"sum_hessian":[2.6028738E4,1.52133955E4,1.0815342E4,2.0397128E3,1.3173683E4,8.692928E3,2.122414E3,8.511966E2,1.1885161E3,4.699649E3,8.474033E3,6.3224873E3,2.370441E3,1.9147438E3,2.0767027E2,8.3836365E2,1.2832979E1,8.634396E1,1.1021722E3,2.738955E3,1.9606941E3,3.6540132E3,4.82002E3,9.7832556E2,5.3441616E3,4.0181003E0,2.3664229E3,3.3408945E2,1.5806543E3,1.0992999E2,9.774028E1],"tree_param":{"num_deleted":"0","num_feature":"3","num_nodes":"31","size_leaf_vector":"1"}},{"base_weights":[2.1470925E-3,-6.768851E-2,1.1547465E-1,-1.921639E-1,-2.8746556E-2,7.75487E-2,2.5991425E-1,-4.0946114E-1,-1.6680826E-1,-5.6130357E-2,-7.535612E-4,5.353432E-2,1.0755745E-1,2.2063154E-1,4.800723E-1,-3.2732997E-2,-1.8350631E-2,-1.0274264E-2,-6.5383404E-3,-1.9769492E-2,-2.6655195E-3,-3.54248E-4,7.7966475E-3,-4.6986463E-3,3.0363225E-3,5.2994573E-3,2.5487015E-2,6.307242E-3,1.2486541E-2,2.1774298E-2,3.976639E-2],"categories":[],"categories_nodes":[],"categories_segments":[],"categories_sizes":[],"default_left":[0,0,0,0,0,0,0,0,0,0,0,0,0,0,0,0,0,0,0,0,0,0,0,0,0,0,0,0,0,0,0],"id":41,"left_children":[1,3,5,7,9,11,13,15,17,19,21,23,25,27,29,-1,-1,-1,-1,-1,-1,-1,-1,-1,-1,-1,-1,-1,-1,-1,-1],"loss_changes":[2.0572299E2,7.7954056E1,5.42713E1,2.1046967E1,9.391534E0,5.6520805E0,1.7715775E1,3.9206696E0,4.7594986E0,5.903969E0,6.0123606E0,4.6345053E0,2.146637E0,4.781563E0,4.027405E0,0E0,0E0,0E0,0E0,0E0,0E0,0E0,0E0,0E0,0E0,0E0,0E0,0E0,0E0,0E0,0E0],"parents":[2147483647,0,0,1,1,2,2,3,3,4,4,5,5,6,6,7,7,8,8,9,9,10,10,11,11,12,12,13,13,14,14],"right_children":[2,4,6,8,10,12,14,16,18,20,22,24,26,28,30,-1,-1,-1,-1,-1,-1,-1,-1,-1,-1,-1,-1,-1,-1,-1,-1],"split_conditions":[4.449253E1,-1.5666234E2,2.1844243E2,-3.6386313E2,-4.169703E1,1.17187515E2,3.844715E2,-5.4609845E2,-2.1776735E2,-3.8667075E2,1.7329732E2,-1.0703668E2,4.940223E2,1.7016441E2,5.556856E2,-3.2732997E-2,-1.8350631E-2,-1.0274264E-2,-6.5383404E-3,-1.9769492E-2,-2.6655195E-3,-3.54248E-4,7.7966475E-3,-4.6986463E-3,3.0363225E-3,5.2994573E-3,2.5487015E-2,6.307242E-3,1.2486541E-2,2.1774298E-2,3.976639E-2],"split_indices":[0,0,0,0,0,0,0,0,0,1,1,1,1,1,1,0,0,0,0,0,0,0,0,0,0,0,0,0,0,0,0],"split_type":[0,0,0,0,0,0,0,0,0,0,0,0,0,0,0,0,0,0,0,0,0,0,0,0,0,0,0,0,0,0,0],"sum_hessian":[2.599185E4,1.6082047E4,9.909803E3,3.831375E3,1.2250672E4,7.850112E3,2.0596914E3,3.987705E2,3.4326045E3,6.192212E3,6.05846E3,4.3621245E3,3.4879873E3,1.7495264E3,3.10165E2,5.6718773E1,3.4205173E2,1.6534949E3,1.7791096E3,4.9898525E1,6.1423135E3,5.824075E3,2.3438484E2,2.0223856E2,4.1598857E3,3.4756975E3,1.228991E1,4.1319556E2,1.3363308E3,2.738202E2,3.6344822E1],"tree_param":{"num_deleted":"0","num_feature":"3","num_nodes":"31","size_leaf_vector":"1"}},{"base_weights":[1.0738681E-3,-6.397211E-2,1.0542415E-1,-2.482084E-1,-4.1264206E-2,6.850977E-2,2.0532969E-1,-5.1605326E-1,-2.284734E-1,-8.7436944E-2,-1.184506E-2,-1.372059E-2,8.0875844E-2,1.8395664E-1,5.2244985E-1,-3.197603E-2,-1.996736E-2,-1.2220408E-2,-2.060945E-3,-2.0163743E-2,-4.167034E-3,-1.1465379E-2,-3.0899997E-4,-9.292309E-3,1.4032684E-4,2.8854532E-3,5.5028214E-3,7.4001104E-3,1.0340499E-2,-3.8089566E-2,2.6934838E-2],"categories":[],"categories_nodes":[],"categories_segments":[],"categories_sizes":[],"default_left":[0,0,0,0,0,0,0,0,0,0,0,0,0,0,0,0,0,0,0,0,0,0,0,0,0,0,0,0,0,0,0],"id":42,"left_children":[1,3,5,7,9,11,13,15,17,19,21,23,25,27,29,-1,-1,-1,-1,-1,-1,-1,-1,-1,-1,-1,-1,-1,-1,-1,-1],"loss_changes":[1.7643054E2,6.697852E1,3.679554E1,9.168434E0,1.9364254E1,7.4136963E0,1.8152588E1,1.4703579E0,4.877617E0,7.1444016E0,1.0727733E1,2.7138033E0,4.277481E0,2.043274E0,3.9461594E0,0E0,0E0,0E0,0E0,0E0,0E0,0E0,0E0,0E0,0E0,0E0,0E0,0E0,0E0,0E0,0E0],"parents":[2147483647,0,0,1,1,2,2,3,3,4,4,5,5,6,6,7,7,8,8,9,9,10,10,11,11,12,12,13,13,14,14],"right_children":[2,4,6,8,10,12,14,16,18,20,22,24,26,28,30,-1,-1,-1,-1,-1,-1,-1,-1,-1,-1,-1,-1,-1,-1,-1,-1],"split_conditions":[4.292291E1,-2.3196169E2,1.9126907E2,-4.771076E2,-8.47034E1,-3.2899075E0,4.344352E2,-5.4609845E2,-6.539019E1,-3.8667075E2,-2.337373E2,4.7561363E1,1.1307093E2,1.9957092E2,-3.796743E1,-3.197603E-2,-1.996736E-2,-1.2220408E-2,-2.060945E-3,-2.0163743E-2,-4.167034E-3,-1.1465379E-2,-3.0899997E-4,-9.292309E-3,1.4032684E-4,2.8854532E-3,5.5028214E-3,7.4001104E-3,1.0340499E-2,-3.8089566E-2,2.6934838E-2],"split_indices":[0,0,0,0,0,1,0,0,1,1,1,0,0,1,1,0,0,0,0,0,0,0,0,0,0,0,0,0,0,0,0],"split_type":[0,0,0,0,0,0,0,0,0,0,0,0,0,0,0,0,0,0,0,0,0,0,0,0,0,0,0,0,0,0,0],"sum_hessian":[2.5991203E4,1.6011154E4,9.980048E3,1.7558077E3,1.4255347E4,7.2886357E3,2.6914124E3,1.1876548E2,1.6370422E3,5.547184E3,8.708162E3,9.5278864E2,6.3358467E3,2.5229524E3,1.6846013E2,5.5534184E1,6.3231297E1,1.5083788E3,1.2866345E2,6.977561E1,5.4774087E3,2.2009212E2,8.48807E3,8.257256E1,8.7021606E2,3.5335227E3,2.8023242E3,9.833518E2,1.5396005E3,1.5312848E0,1.6692885E2],"tree_param":{"num_deleted":"0","num_feature":"3","num_nodes":"31","size_leaf_vector":"1"}},{"base_weights":[1.6784339E-4,-6.342584E-2,7.8215845E-2,-1.4271767E-1,-2.6008572E-2,5.032593E-2,2.0609535E-1,-2.4846824E-1,-1.18838795E-1,-8.014998E-2,-1.7891899E-2,3.286346E-2,8.79521E-2,1.772821E-1,2.9781124E-1,-1.2017214E-2,-3.5145964E-2,-7.1032555E-3,-3.9129048E-3,-3.5529719E-3,-1.6955124E-2,-2.396263E-3,-3.0650198E-4,-5.126635E-4,2.6303583E-3,4.7993376E-3,-4.8195473E-3,9.505647E-3,2.739335E-4,1.3605408E-2,2.4639836E-2],"categories":[],"categories_nodes":[],"categories_segments":[],"categories_sizes":[],"default_left":[0,0,0,0,0,0,0,0,0,0,0,0,0,0,0,0,0,0,0,0,0,0,0,0,0,0,0,0,0,0,0],"id":43,"left_children":[1,3,5,7,9,11,13,15,17,19,21,23,25,27,29,-1,-1,-1,-1,-1,-1,-1,-1,-1,-1,-1,-1,-1,-1,-1,-1],"loss_changes":[1.2868295E2,4.2381714E1,4.150569E1,1.1535828E1,4.264383E0,6.276863E0,5.454056E0,2.9424553E0,3.5122948E0,2.95434E0,2.9821641E0,5.559015E0,4.495659E0,3.4998703E0,2.3551598E0,0E0,0E0,0E0,0E0,0E0,0E0,0E0,0E0,0E0,0E0,0E0,0E0,0E0,0E0,0E0,0E0],"parents":[2147483647,0,0,1,1,2,2,3,3,4,4,5,5,6,6,7,7,8,8,9,9,10,10,11,11,12,12,13,13,14,14],"right_children":[2,4,6,8,10,12,14,16,18,20,22,24,26,28,30,-1,-1,-1,-1,-1,-1,-1,-1,-1,-1,-1,-1,-1,-1,-1,-1],"split_conditions":[1.464797E1,-1.4482927E2,2.2924084E2,-3.216411E2,-2.25E-1,2E-1,3.671222E2,4E-1,-3.3333335E-2,7.6174455E0,-8.450272E1,5.8503555E1,2.1559834E2,4.3333334E-1,5.556856E2,-1.2017214E-2,-3.5145964E-2,-7.1032555E-3,-3.9129048E-3,-3.5529719E-3,-1.6955124E-2,-2.396263E-3,-3.0650198E-4,-5.126635E-4,2.6303583E-3,4.7993376E-3,-4.8195473E-3,9.505647E-3,2.739335E-4,1.3605408E-2,2.4639836E-2],"split_indices":[1,1,1,1,2,2,1,2,2,1,1,1,1,2,1,0,0,0,0,0,0,0,0,0,0,0,0,0,0,0,0],"split_type":[0,0,0,0,0,0,0,0,0,0,0,0,0,0,0,0,0,0,0,0,0,0,0,0,0,0,0,0,0,0,0],"sum_hessian":[2.5924582E4,1.4285177E4,1.1639405E4,4.5789653E3,9.706212E3,9.556559E3,2.082847E3,8.417532E2,3.737212E3,1.2642557E3,8.441956E3,6.5285186E3,3.02804E3,1.587161E3,4.9568588E2,8.2847186E2,1.3281256E1,2.3752434E3,1.3619685E3,1.2226104E3,4.164541E1,2.3748396E3,6.0671167E3,2.05068E3,4.4778384E3,2.9020334E3,1.2600677E2,1.4767648E3,1.1039618E2,4.40071E2,5.561487E1],"tree_param":{"num_deleted":"0","num_feature":"3","num_nodes":"31","size_leaf_vector":"1"}},{"base_weights":[-1.8465753E-3,-6.5261304E-2,1.0233934E-1,-2.2291104E-1,-3.8625274E-2,9.101194E-2,3.8235623E-1,-4.709585E-1,-2.0190077E-1,-7.460936E-2,-6.562423E-3,7.084598E-2,1.6466375E-1,3.233106E-1,7.562201E-1,-3.3140328E-2,-1.9310186E-2,-1.3753208E-2,-9.331856E-3,-5.1508397E-3,-2.942877E-3,8.8299215E-3,-4.7182277E-4,-2.0633338E-2,3.657447E-3,8.917677E-3,9.632629E-4,1.8204538E-2,-1.2243162E-2,-1.5739966E-2,3.9354976E-2],"categories":[],"categories_nodes":[],"categories_segments":[],"categories_sizes":[],"default_left":[0,0,0,0,0,0,0,0,0,0,0,0,0,0,0,0,0,0,0,0,0,0,0,0,0,0,0,0,0,0,0],"id":44,"left_children":[1,3,5,7,9,11,13,15,17,19,21,23,25,27,29,-1,-1,-1,-1,-1,-1,-1,-1,-1,-1,-1,-1,-1,-1,-1,-1],"loss_changes":[1.7092142E2,6.7520805E1,3.1012703E1,1.2017464E1,1.5873367E1,1.3963364E1,8.149731E0,2.6828728E0,2.3434372E0,2.8947525E0,3.8322196E0,8.257275E0,4.0207596E0,7.7385864E0,1.9383621E0,0E0,0E0,0E0,0E0,0E0,0E0,0E0,0E0,0E0,0E0,0E0,0E0,0E0,0E0,0E0,0E0],"parents":[2147483647,0,0,1,1,2,2,3,3,4,4,5,5,6,6,7,7,8,8,9,9,10,10,11,11,12,12,13,13,14,14],"right_children":[2,4,6,8,10,12,14,16,18,20,22,24,26,28,30,-1,-1,-1,-1,-1,-1,-1,-1,-1,-1,-1,-1,-1,-1,-1,-1],"split_conditions":[4.449253E1,-2.0594276E2,3.6536612E2,-4.3629315E2,-5.9933186E1,2.0214299E2,5.406862E2,-5.4609845E2,-3.349438E2,